<?xml version="1.0"?>
<opencv_storage>
<cascade>
  <stageType>BOOST</stageType>
  <featureType>HAAR</featureType>
  <height>20</height>
  <width>20</width>
  <stageParams>
    <boostType>GAB</boostType>
    <minHitRate>9.9500000476837158e-01</minHitRate>
    <maxFalseAlarm>5.0000000000000000e-01</maxFalseAlarm>
    <weightTrimRate>9.4999999999999996e-01</weightTrimRate>
    <maxDepth>1</maxDepth>
    <maxWeakCount>100</maxWeakCount></stageParams>
  <featureParams>
    <maxCatCount>0</maxCatCount>
    <featSize>1</featSize>
    <mode>BASIC</mode></featureParams>
  <stageNum>8</stageNum>
  <stages>
    <!-- stage 0 -->
    <_>
      <maxWeakCount>3</maxWeakCount>
      <stageThreshold>-7.5797080993652344e-01</stageThreshold>
      <weakClassifiers>
        <_>
          <internalNodes>
            0 -1 5 3.0841831117868423e-02</internalNodes>
          <leafValues>
            -8.1415927410125732e-01 8.5303938388824463e-01</leafValues></_>
        <_>
          <internalNodes>
            0 -1 16 6.0273393988609314e-02</internalNodes>
          <leafValues>
            -7.1670866012573242e-01 7.9367846250534058e-01</leafValues></_>
        <_>
          <internalNodes>
            0 -1 25 -4.2319118976593018e-02</internalNodes>
          <leafValues>
            7.7289712429046631e-01 -5.9019261598587036e-01</leafValues></_></weakClassifiers></_>
    <!-- stage 1 -->
    <_>
      <maxWeakCount>4</maxWeakCount>
      <stageThreshold>-5.3503268957138062e-01</stageThreshold>
      <weakClassifiers>
        <_>
          <internalNodes>
            0 -1 7 1.5868935734033585e-02</internalNodes>
          <leafValues>
            -5.6274259090423584e-01 8.5531276464462280e-01</leafValues></_>
        <_>
          <internalNodes>
            0 -1 3 2.1241951733827591e-02</internalNodes>
          <leafValues>
            -8.7338930368423462e-01 6.2188267707824707e-01</leafValues></_>
        <_>
          <internalNodes>
            0 -1 20 -1.4605777687393129e-04</internalNodes>
          <leafValues>
            -9.0821659564971924e-01 4.0408152341842651e-01</leafValues></_>
        <_>
          <internalNodes>
            0 -1 12 -9.2369429767131805e-02</internalNodes>
          <leafValues>
            4.9701765179634094e-01 -7.1709650754928589e-01</leafValues></_></weakClassifiers></_>
    <!-- stage 2 -->
    <_>
      <maxWeakCount>5</maxWeakCount>
      <stageThreshold>-6.4262604713439941e-01</stageThreshold>
      <weakClassifiers>
        <_>
          <internalNodes>
            0 -1 0 6.5343230962753296e-02</internalNodes>
          <leafValues>
            -6.4774382114410400e-01 8.1033259630203247e-01</leafValues></_>
        <_>
          <internalNodes>
            0 -1 23 1.0412958450615406e-02</internalNodes>
          <leafValues>
            -8.1260097026824951e-01 6.4024490118026733e-01</leafValues></_>
        <_>
          <internalNodes>
            0 -1 10 1.9328331947326660e-01</internalNodes>
          <leafValues>
            -6.3741809129714966e-01 6.3685673475265503e-01</leafValues></_>
        <_>
          <internalNodes>
            0 -1 14 1.0195022821426392e-01</internalNodes>
          <leafValues>
            -5.1344209909439087e-01 7.1401292085647583e-01</leafValues></_>
        <_>
          <internalNodes>
            0 -1 2 2.2733384743332863e-02</internalNodes>
          <leafValues>
            -6.1523032188415527e-01 6.9430410861968994e-01</leafValues></_></weakClassifiers></_>
    <!-- stage 3 -->
    <_>
      <maxWeakCount>4</maxWeakCount>
      <stageThreshold>-4.7269225120544434e-01</stageThreshold>
      <weakClassifiers>
        <_>
          <internalNodes>
            0 -1 15 2.8291488997638226e-03</internalNodes>
          <leafValues>
            6.8948656320571899e-01 -9.2241376638412476e-01</leafValues></_>
        <_>
          <internalNodes>
            0 -1 9 3.0320368707180023e-02</internalNodes>
          <leafValues>
            -7.7556550502777100e-01 6.2462675571441650e-01</leafValues></_>
        <_>
          <internalNodes>
            0 -1 13 1.6922408342361450e-01</internalNodes>
          <leafValues>
            -6.7105418443679810e-01 6.9962304830551147e-01</leafValues></_>
        <_>
          <internalNodes>
            0 -1 8 -1.7937194555997849e-02</internalNodes>
          <leafValues>
            -9.5880490541458130e-01 4.9614900350570679e-01</leafValues></_></weakClassifiers></_>
    <!-- stage 4 -->
    <_>
      <maxWeakCount>4</maxWeakCount>
      <stageThreshold>-4.4705450534820557e-01</stageThreshold>
      <weakClassifiers>
        <_>
          <internalNodes>
            0 -1 5 3.9432853460311890e-02</internalNodes>
          <leafValues>
            -6.8888890743255615e-01 7.2805279493331909e-01</leafValues></_>
        <_>
          <internalNodes>
            0 -1 11 1.4221298694610596e-01</internalNodes>
          <leafValues>
            -7.0361888408660889e-01 6.3938045501708984e-01</leafValues></_>
        <_>
          <internalNodes>
            0 -1 19 -1.4765540254302323e-04</internalNodes>
          <leafValues>
            -8.7192177772521973e-01 5.2837049961090088e-01</leafValues></_>
        <_>
          <internalNodes>
            0 -1 18 -4.8028392484411597e-04</internalNodes>
          <leafValues>
            -8.4291392564773560e-01 4.7437569499015808e-01</leafValues></_></weakClassifiers></_>
    <!-- stage 5 -->
    <_>
      <maxWeakCount>4</maxWeakCount>
      <stageThreshold>-7.5582355260848999e-02</stageThreshold>
      <weakClassifiers>
        <_>
          <internalNodes>
            0 -1 1 5.8173142373561859e-02</internalNodes>
          <leafValues>
            -7.1159875392913818e-01 7.8932970762252808e-01</leafValues></_>
        <_>
          <internalNodes>
            0 -1 4 5.3690657950937748e-03</internalNodes>
          <leafValues>
            -4.8656365275382996e-01 8.7442266941070557e-01</leafValues></_>
        <_>
          <internalNodes>
            0 -1 17 -5.1614842377603054e-03</internalNodes>
          <leafValues>
            -8.9043903350830078e-01 5.8453637361526489e-01</leafValues></_>
        <_>
          <internalNodes>
            0 -1 6 2.2662222385406494e-02</internalNodes>
          <leafValues>
            -7.7308541536331177e-01 5.3804367780685425e-01</leafValues></_></weakClassifiers></_>
    <!-- stage 6 -->
    <_>
      <maxWeakCount>2</maxWeakCount>
      <stageThreshold>-2.0605564117431641e-01</stageThreshold>
      <weakClassifiers>
        <_>
          <internalNodes>
            0 -1 24 -7.4197232606820762e-05</internalNodes>
          <leafValues>
            -8.7951809167861938e-01 7.9723501205444336e-01</leafValues></_>
        <_>
          <internalNodes>
            0 -1 21 -1.4647639181930572e-04</internalNodes>
          <leafValues>
            -8.9738756418228149e-01 6.7346245050430298e-01</leafValues></_></weakClassifiers></_>
    <!-- stage 7 -->
    <_>
      <maxWeakCount>2</maxWeakCount>
      <stageThreshold>-1.2183345854282379e-01</stageThreshold>
      <weakClassifiers>
        <_>
          <internalNodes>
            0 -1 26 3.4961203346028924e-04</internalNodes>
          <leafValues>
            8.3578103780746460e-01 -9.1694355010986328e-01</leafValues></_>
        <_>
          <internalNodes>
            0 -1 22 -7.6651613926514983e-04</internalNodes>
          <leafValues>
            -9.0820753574371338e-01 7.9511004686355591e-01</leafValues></_></weakClassifiers></_></stages>
  <features>
    <_>
      <rects>
        <_>
          0 4 8 12 -1.</_>
        <_>
          4 4 4 12 2.</_></rects>
      <tilted>0</tilted></_>
    <_>
      <rects>
        <_>
          0 4 10 14 -1.</_>
        <_>
          5 4 5 14 2.</_></rects>
      <tilted>0</tilted></_>
    <_>
      <rects>
        <_>
          0 5 4 9 -1.</_>
        <_>
          2 5 2 9 2.</_></rects>
      <tilted>0</tilted></_>
    <_>
      <rects>
        <_>
          0 5 14 10 -1.</_>
        <_>
          7 5 7 10 2.</_></rects>
      <tilted>0</tilted></_>
    <_>
      <rects>
        <_>
          0 6 2 9 -1.</_>
        <_>
          1 6 1 9 2.</_></rects>
      <tilted>0</tilted></_>
    <_>
      <rects>
        <_>
          0 6 6 10 -1.</_>
        <_>
          3 6 3 10 2.</_></rects>
      <tilted>0</tilted></_>
    <_>
      <rects>
        <_>
          0 6 18 6 -1.</_>
        <_>
          6 6 6 6 3.</_></rects>
      <tilted>0</tilted></_>
    <_>
      <rects>
        <_>
          0 7 4 6 -1.</_>
        <_>
          2 7 2 6 2.</_></rects>
      <tilted>0</tilted></_>
    <_>
      <rects>
        <_>
          0 7 18 7 -1.</_>
        <_>
          9 7 9 7 2.</_></rects>
      <tilted>0</tilted></_>
    <_>
      <rects>
        <_>
          0 8 6 12 -1.</_>
        <_>
          3 8 3 12 2.</_></rects>
      <tilted>0</tilted></_>
    <_>
      <rects>
        <_>
          2 0 15 12 -1.</_>
        <_>
          2 6 15 6 2.</_></rects>
      <tilted>0</tilted></_>
    <_>
      <rects>
        <_>
          2 0 16 10 -1.</_>
        <_>
          2 5 16 5 2.</_></rects>
      <tilted>0</tilted></_>
    <_>
      <rects>
        <_>
          2 12 16 8 -1.</_>
        <_>
          2 16 16 4 2.</_></rects>
      <tilted>0</tilted></_>
    <_>
      <rects>
        <_>
          3 0 16 10 -1.</_>
        <_>
          3 5 16 5 2.</_></rects>
      <tilted>0</tilted></_>
    <_>
      <rects>
        <_>
          5 3 15 15 -1.</_>
        <_>
          10 3 5 15 3.</_></rects>
      <tilted>0</tilted></_>
    <_>
      <rects>
        <_>
          5 10 2 6 -1.</_>
        <_>
          5 13 2 3 2.</_></rects>
      <tilted>0</tilted></_>
    <_>
      <rects>
        <_>
          6 0 9 8 -1.</_>
        <_>
          6 4 9 4 2.</_></rects>
      <tilted>0</tilted></_>
    <_>
      <rects>
        <_>
          6 8 10 2 -1.</_>
        <_>
          11 8 5 2 2.</_></rects>
      <tilted>0</tilted></_>
    <_>
      <rects>
        <_>
          6 13 8 1 -1.</_>
        <_>
          10 13 4 1 2.</_></rects>
      <tilted>0</tilted></_>
    <_>
      <rects>
        <_>
          7 12 1 2 -1.</_>
        <_>
          7 13 1 1 2.</_></rects>
      <tilted>0</tilted></_>
    <_>
      <rects>
        <_>
          9 10 1 4 -1.</_>
        <_>
          9 12 1 2 2.</_></rects>
      <tilted>0</tilted></_>
    <_>
      <rects>
        <_>
          9 12 1 2 -1.</_>
        <_>
          9 13 1 1 2.</_></rects>
      <tilted>0</tilted></_>
    <_>
      <rects>
        <_>
          10 12 6 1 -1.</_>
        <_>
          12 12 2 1 3.</_></rects>
      <tilted>0</tilted></_>
    <_>
      <rects>
        <_>
          11 8 9 4 -1.</_>
        <_>
          14 8 3 4 3.</_></rects>
      <tilted>0</tilted></_>
    <_>
      <rects>
        <_>
          12 5 4 15 -1.</_>
        <_>
          12 10 4 5 3.</_></rects>
      <tilted>0</tilted></_>
    <_>
      <rects>
        <_>
          14 5 6 10 -1.</_>
        <_>
          17 5 3 10 2.</_></rects>
      <tilted>0</tilted></_>
    <_>
      <rects>
        <_>
          15 9 2 2 -1.</_>
        <_>
          16 9 1 2 2.</_></rects>
      <tilted>0</tilted></_></features></cascade>
</opencv_storage>
