<?xml version="1.0"?>
<opencv_storage>
<cascade>
  <stageType>BOOST</stageType>
  <featureType>HAAR</featureType>
  <height>20</height>
  <width>20</width>
  <stageParams>
    <boostType>GAB</boostType>
    <minHitRate>9.9500000476837158e-01</minHitRate>
    <maxFalseAlarm>5.0000000000000000e-01</maxFalseAlarm>
    <weightTrimRate>9.4999999999999996e-01</weightTrimRate>
    <maxDepth>1</maxDepth>
    <maxWeakCount>100</maxWeakCount></stageParams>
  <featureParams>
    <maxCatCount>0</maxCatCount>
    <featSize>1</featSize>
    <mode>BASIC</mode></featureParams>
  <stageNum>12</stageNum>
  <stages>
    <!-- stage 0 -->
    <_>
      <maxWeakCount>14</maxWeakCount>
      <stageThreshold>-1.0324569940567017e+00</stageThreshold>
      <weakClassifiers>
        <_>
          <internalNodes>
            0 -1 6 8.6064022034406662e-03</internalNodes>
          <leafValues>
            -1.8190954625606537e-01 7.9728507995605469e-01</leafValues></_>
        <_>
          <internalNodes>
            0 -1 14 2.1572716534137726e-02</internalNodes>
          <leafValues>
            -2.0138975977897644e-01 6.0786443948745728e-01</leafValues></_>
        <_>
          <internalNodes>
            0 -1 209 2.8008930385112762e-02</internalNodes>
          <leafValues>
            -2.8311094641685486e-01 5.2315819263458252e-01</leafValues></_>
        <_>
          <internalNodes>
            0 -1 109 -1.5608631074428558e-02</internalNodes>
          <leafValues>
            6.5711319446563721e-01 -2.1979412436485291e-01</leafValues></_>
        <_>
          <internalNodes>
            0 -1 95 -3.0980240553617477e-02</internalNodes>
          <leafValues>
            7.9771459102630615e-01 -1.3513997197151184e-01</leafValues></_>
        <_>
          <internalNodes>
            0 -1 103 -1.7368290573358536e-02</internalNodes>
          <leafValues>
            6.2478250265121460e-01 -1.6291636228561401e-01</leafValues></_>
        <_>
          <internalNodes>
            0 -1 248 2.6610172353684902e-03</internalNodes>
          <leafValues>
            -2.2779418528079987e-01 3.8397213816642761e-01</leafValues></_>
        <_>
          <internalNodes>
            0 -1 88 9.7273709252476692e-03</internalNodes>
          <leafValues>
            -1.4631974697113037e-01 6.2174797058105469e-01</leafValues></_>
        <_>
          <internalNodes>
            0 -1 203 1.3364203274250031e-02</internalNodes>
          <leafValues>
            -1.8455748260021210e-01 4.2703655362129211e-01</leafValues></_>
        <_>
          <internalNodes>
            0 -1 80 -3.1848616898059845e-02</internalNodes>
          <leafValues>
            6.7153573036193848e-01 -1.1349111050367355e-01</leafValues></_>
        <_>
          <internalNodes>
            0 -1 176 9.4241872429847717e-03</internalNodes>
          <leafValues>
            1.6166944801807404e-01 -5.6340706348419189e-01</leafValues></_>
        <_>
          <internalNodes>
            0 -1 59 -1.6205061227083206e-02</internalNodes>
          <leafValues>
            3.5842961072921753e-01 -2.1779547631740570e-01</leafValues></_>
        <_>
          <internalNodes>
            0 -1 202 1.1139814741909504e-02</internalNodes>
          <leafValues>
            -1.7517240345478058e-01 4.4392758607864380e-01</leafValues></_>
        <_>
          <internalNodes>
            0 -1 158 -6.2270365655422211e-02</internalNodes>
          <leafValues>
            4.8472756147384644e-01 -1.4006039500236511e-01</leafValues></_></weakClassifiers></_>
    <!-- stage 1 -->
    <_>
      <maxWeakCount>22</maxWeakCount>
      <stageThreshold>-9.1780179738998413e-01</stageThreshold>
      <weakClassifiers>
        <_>
          <internalNodes>
            0 -1 19 7.7692652121186256e-03</internalNodes>
          <leafValues>
            -1.3641245663166046e-01 7.0744228363037109e-01</leafValues></_>
        <_>
          <internalNodes>
            0 -1 71 1.4212371781468391e-02</internalNodes>
          <leafValues>
            -9.9996246397495270e-02 6.9350105524063110e-01</leafValues></_>
        <_>
          <internalNodes>
            0 -1 103 -2.2983141243457794e-02</internalNodes>
          <leafValues>
            6.4492917060852051e-01 -1.3624176383018494e-01</leafValues></_>
        <_>
          <internalNodes>
            0 -1 86 -4.3346785008907318e-02</internalNodes>
          <leafValues>
            7.0724368095397949e-01 -1.3174720108509064e-01</leafValues></_>
        <_>
          <internalNodes>
            0 -1 152 -2.0683065056800842e-01</internalNodes>
          <leafValues>
            6.6385370492935181e-01 -1.7238186299800873e-01</leafValues></_>
        <_>
          <internalNodes>
            0 -1 106 7.9643446952104568e-03</internalNodes>
          <leafValues>
            -1.4317062497138977e-01 5.3936147689819336e-01</leafValues></_>
        <_>
          <internalNodes>
            0 -1 32 1.6660895943641663e-01</internalNodes>
          <leafValues>
            1.5897552669048309e-01 -5.2755469083786011e-01</leafValues></_>
        <_>
          <internalNodes>
            0 -1 70 2.2810697555541992e-03</internalNodes>
          <leafValues>
            2.3023509979248047e-01 -3.2454371452331543e-01</leafValues></_>
        <_>
          <internalNodes>
            0 -1 241 6.9775814190506935e-03</internalNodes>
          <leafValues>
            -2.1593151986598969e-01 3.3299887180328369e-01</leafValues></_>
        <_>
          <internalNodes>
            0 -1 142 5.8286394923925400e-03</internalNodes>
          <leafValues>
            -1.7427243292331696e-01 4.2441639304161072e-01</leafValues></_>
        <_>
          <internalNodes>
            0 -1 189 2.0159389823675156e-02</internalNodes>
          <leafValues>
            -1.6896323859691620e-01 4.2520079016685486e-01</leafValues></_>
        <_>
          <internalNodes>
            0 -1 224 1.5112482011318207e-02</internalNodes>
          <leafValues>
            -1.4620158076286316e-01 4.9425569176673889e-01</leafValues></_>
        <_>
          <internalNodes>
            0 -1 79 2.1564632654190063e-02</internalNodes>
          <leafValues>
            -1.2941345572471619e-01 4.9546098709106445e-01</leafValues></_>
        <_>
          <internalNodes>
            0 -1 100 -2.8872981667518616e-02</internalNodes>
          <leafValues>
            5.7670235633850098e-01 -1.0733617842197418e-01</leafValues></_>
        <_>
          <internalNodes>
            0 -1 136 8.8718673214316368e-04</internalNodes>
          <leafValues>
            -1.7294634878635406e-01 3.8664019107818604e-01</leafValues></_>
        <_>
          <internalNodes>
            0 -1 97 -1.3860967010259628e-02</internalNodes>
          <leafValues>
            8.1636673212051392e-01 -7.4690334498882294e-02</leafValues></_>
        <_>
          <internalNodes>
            0 -1 48 8.1345945596694946e-02</internalNodes>
          <leafValues>
            -5.1802024245262146e-02 8.8475382328033447e-01</leafValues></_>
        <_>
          <internalNodes>
            0 -1 80 -3.3164143562316895e-02</internalNodes>
          <leafValues>
            6.2007927894592285e-01 -9.4293519854545593e-02</leafValues></_>
        <_>
          <internalNodes>
            0 -1 210 6.6854972392320633e-03</internalNodes>
          <leafValues>
            -1.8902650475502014e-01 3.3958026766777039e-01</leafValues></_>
        <_>
          <internalNodes>
            0 -1 143 -1.8507953733205795e-02</internalNodes>
          <leafValues>
            7.2493016719818115e-01 -7.8495286405086517e-02</leafValues></_>
        <_>
          <internalNodes>
            0 -1 138 3.8191109895706177e-02</internalNodes>
          <leafValues>
            1.4605726301670074e-01 -4.2289182543754578e-01</leafValues></_>
        <_>
          <internalNodes>
            0 -1 102 2.7730021625757217e-02</internalNodes>
          <leafValues>
            -1.1794043332338333e-01 5.3179377317428589e-01</leafValues></_></weakClassifiers></_>
    <!-- stage 2 -->
    <_>
      <maxWeakCount>27</maxWeakCount>
      <stageThreshold>-9.7783023118972778e-01</stageThreshold>
      <weakClassifiers>
        <_>
          <internalNodes>
            0 -1 13 1.2866850942373276e-02</internalNodes>
          <leafValues>
            -1.9681349396705627e-02 6.9796711206436157e-01</leafValues></_>
        <_>
          <internalNodes>
            0 -1 141 -1.0205937922000885e-01</internalNodes>
          <leafValues>
            5.1145505905151367e-01 -2.1672917902469635e-01</leafValues></_>
        <_>
          <internalNodes>
            0 -1 85 -4.2760606855154037e-02</internalNodes>
          <leafValues>
            6.6874551773071289e-01 -1.2562140822410583e-01</leafValues></_>
        <_>
          <internalNodes>
            0 -1 93 -1.6185499727725983e-02</internalNodes>
          <leafValues>
            5.5967384576797485e-01 -1.8031415343284607e-01</leafValues></_>
        <_>
          <internalNodes>
            0 -1 246 8.8236946612596512e-03</internalNodes>
          <leafValues>
            -2.1471078693866730e-01 3.8606238365173340e-01</leafValues></_>
        <_>
          <internalNodes>
            0 -1 155 5.2192807197570801e-02</internalNodes>
          <leafValues>
            1.5243709087371826e-01 -5.0571578741073608e-01</leafValues></_>
        <_>
          <internalNodes>
            0 -1 237 7.8852754086256027e-03</internalNodes>
          <leafValues>
            -1.9994282722473145e-01 3.5420286655426025e-01</leafValues></_>
        <_>
          <internalNodes>
            0 -1 200 1.4129623770713806e-02</internalNodes>
          <leafValues>
            -9.7561329603195190e-02 5.9282416105270386e-01</leafValues></_>
        <_>
          <internalNodes>
            0 -1 74 8.7167620658874512e-03</internalNodes>
          <leafValues>
            -1.6804476082324982e-01 4.4008514285087585e-01</leafValues></_>
        <_>
          <internalNodes>
            0 -1 39 1.9794681575149298e-03</internalNodes>
          <leafValues>
            1.9339179992675781e-01 -3.6401528120040894e-01</leafValues></_>
        <_>
          <internalNodes>
            0 -1 107 2.2657737135887146e-02</internalNodes>
          <leafValues>
            -1.2312947213649750e-01 6.2996417284011841e-01</leafValues></_>
        <_>
          <internalNodes>
            0 -1 177 6.2366219935938716e-05</internalNodes>
          <leafValues>
            -2.6718005537986755e-01 2.3577882349491119e-01</leafValues></_>
        <_>
          <internalNodes>
            0 -1 10 -2.1544902119785547e-03</internalNodes>
          <leafValues>
            -3.8097134232521057e-01 1.7050923407077789e-01</leafValues></_>
        <_>
          <internalNodes>
            0 -1 165 8.3768218755722046e-03</internalNodes>
          <leafValues>
            -1.1156013607978821e-01 5.7672792673110962e-01</leafValues></_>
        <_>
          <internalNodes>
            0 -1 54 -2.8737198561429977e-02</internalNodes>
          <leafValues>
            6.7261898517608643e-01 -7.9042330384254456e-02</leafValues></_>
        <_>
          <internalNodes>
            0 -1 73 -1.6523605212569237e-02</internalNodes>
          <leafValues>
            6.0236454010009766e-01 -9.3900419771671295e-02</leafValues></_>
        <_>
          <internalNodes>
            0 -1 144 -1.1437701061367989e-02</internalNodes>
          <leafValues>
            -3.9201298356056213e-01 1.6478078067302704e-01</leafValues></_>
        <_>
          <internalNodes>
            0 -1 239 8.5496465908363461e-04</internalNodes>
          <leafValues>
            -1.8496070802211761e-01 3.2091185450553894e-01</leafValues></_>
        <_>
          <internalNodes>
            0 -1 156 6.7443601787090302e-02</internalNodes>
          <leafValues>
            1.2372136861085892e-01 -5.3877037763595581e-01</leafValues></_>
        <_>
          <internalNodes>
            0 -1 216 3.9006236940622330e-02</internalNodes>
          <leafValues>
            9.6697695553302765e-02 -5.7422375679016113e-01</leafValues></_>
        <_>
          <internalNodes>
            0 -1 43 3.3006146550178528e-03</internalNodes>
          <leafValues>
            1.3982200622558594e-01 -3.6657398939132690e-01</leafValues></_>
        <_>
          <internalNodes>
            0 -1 134 -1.4515936374664307e-01</internalNodes>
          <leafValues>
            -5.0901269912719727e-01 1.1667984724044800e-01</leafValues></_>
        <_>
          <internalNodes>
            0 -1 33 2.6807565242052078e-02</internalNodes>
          <leafValues>
            1.4865331351757050e-01 -4.5367705821990967e-01</leafValues></_>
        <_>
          <internalNodes>
            0 -1 72 -3.0906476080417633e-02</internalNodes>
          <leafValues>
            6.3574665784835815e-01 -9.3932300806045532e-02</leafValues></_>
        <_>
          <internalNodes>
            0 -1 125 -4.1012831032276154e-02</internalNodes>
          <leafValues>
            7.1439617872238159e-01 -5.9705991297960281e-02</leafValues></_>
        <_>
          <internalNodes>
            0 -1 233 4.1319951415061951e-03</internalNodes>
          <leafValues>
            -1.2287698686122894e-01 4.1843995451927185e-01</leafValues></_>
        <_>
          <internalNodes>
            0 -1 180 4.7818943858146667e-03</internalNodes>
          <leafValues>
            1.2149430811405182e-01 -4.5967850089073181e-01</leafValues></_></weakClassifiers></_>
    <!-- stage 3 -->
    <_>
      <maxWeakCount>30</maxWeakCount>
      <stageThreshold>-9.6665900945663452e-01</stageThreshold>
      <weakClassifiers>
        <_>
          <internalNodes>
            0 -1 20 1.0469462722539902e-02</internalNodes>
          <leafValues>
            -3.2665964215993881e-02 6.3509988784790039e-01</leafValues></_>
        <_>
          <internalNodes>
            0 -1 47 -2.8273452073335648e-02</internalNodes>
          <leafValues>
            7.2251838445663452e-01 -7.3423624038696289e-02</leafValues></_>
        <_>
          <internalNodes>
            0 -1 101 -3.1352657824754715e-02</internalNodes>
          <leafValues>
            5.6718128919601440e-01 -1.8612614274024963e-01</leafValues></_>
        <_>
          <internalNodes>
            0 -1 213 1.6245231032371521e-02</internalNodes>
          <leafValues>
            -1.7968803644180298e-01 4.1235736012458801e-01</leafValues></_>
        <_>
          <internalNodes>
            0 -1 60 -2.7204571291804314e-02</internalNodes>
          <leafValues>
            6.4943003654479980e-01 -1.5302716195583344e-01</leafValues></_>
        <_>
          <internalNodes>
            0 -1 61 7.6643871143460274e-03</internalNodes>
          <leafValues>
            -1.4204137027263641e-01 4.5369905233383179e-01</leafValues></_>
        <_>
          <internalNodes>
            0 -1 151 -1.1371064931154251e-01</internalNodes>
          <leafValues>
            4.4790610671043396e-01 -1.3951258361339569e-01</leafValues></_>
        <_>
          <internalNodes>
            0 -1 108 -1.3558718562126160e-01</internalNodes>
          <leafValues>
            -5.4500001668930054e-01 1.1753431707620621e-01</leafValues></_>
        <_>
          <internalNodes>
            0 -1 5 -1.3356560841202736e-02</internalNodes>
          <leafValues>
            -3.5344317555427551e-01 2.1671423316001892e-01</leafValues></_>
        <_>
          <internalNodes>
            0 -1 242 6.1450223438441753e-03</internalNodes>
          <leafValues>
            -2.4214811623096466e-01 2.2469730675220490e-01</leafValues></_>
        <_>
          <internalNodes>
            0 -1 196 8.6248507723212242e-03</internalNodes>
          <leafValues>
            -1.8642440438270569e-01 3.1875634193420410e-01</leafValues></_>
        <_>
          <internalNodes>
            0 -1 77 2.5707785040140152e-02</internalNodes>
          <leafValues>
            -1.2726652622222900e-01 3.8469636440277100e-01</leafValues></_>
        <_>
          <internalNodes>
            0 -1 187 3.1097166240215302e-02</internalNodes>
          <leafValues>
            1.1716387420892715e-01 -4.9094340205192566e-01</leafValues></_>
        <_>
          <internalNodes>
            0 -1 205 5.6295460090041161e-03</internalNodes>
          <leafValues>
            -1.2441837042570114e-01 4.1584375500679016e-01</leafValues></_>
        <_>
          <internalNodes>
            0 -1 206 -8.6821960285305977e-03</internalNodes>
          <leafValues>
            4.0513196587562561e-01 -1.5770876407623291e-01</leafValues></_>
        <_>
          <internalNodes>
            0 -1 31 -1.4786166138947010e-02</internalNodes>
          <leafValues>
            4.0613684058189392e-01 -1.2156601995229721e-01</leafValues></_>
        <_>
          <internalNodes>
            0 -1 95 -2.2265754640102386e-02</internalNodes>
          <leafValues>
            4.2801406979560852e-01 -1.4580217003822327e-01</leafValues></_>
        <_>
          <internalNodes>
            0 -1 228 1.3085257261991501e-02</internalNodes>
          <leafValues>
            -1.6599619388580322e-01 3.0646249651908875e-01</leafValues></_>
        <_>
          <internalNodes>
            0 -1 7 -5.3086894331499934e-04</internalNodes>
          <leafValues>
            -3.2235199213027954e-01 1.6285930573940277e-01</leafValues></_>
        <_>
          <internalNodes>
            0 -1 253 -2.4458311963826418e-04</internalNodes>
          <leafValues>
            -2.7958104014396667e-01 1.7498259246349335e-01</leafValues></_>
        <_>
          <internalNodes>
            0 -1 215 9.4430409371852875e-02</internalNodes>
          <leafValues>
            8.4814563393592834e-02 -6.4603942632675171e-01</leafValues></_>
        <_>
          <internalNodes>
            0 -1 124 1.3927958905696869e-02</internalNodes>
          <leafValues>
            -9.9261313676834106e-02 5.9569674730300903e-01</leafValues></_>
        <_>
          <internalNodes>
            0 -1 243 -1.1739645153284073e-02</internalNodes>
          <leafValues>
            6.3920235633850098e-01 -6.4622968435287476e-02</leafValues></_>
        <_>
          <internalNodes>
            0 -1 184 -1.7777327448129654e-03</internalNodes>
          <leafValues>
            2.2410716116428375e-01 -2.0692622661590576e-01</leafValues></_>
        <_>
          <internalNodes>
            0 -1 128 -1.3993102312088013e-01</internalNodes>
          <leafValues>
            -5.4092317819595337e-01 9.6826620399951935e-02</leafValues></_>
        <_>
          <internalNodes>
            0 -1 207 1.0016446001827717e-02</internalNodes>
          <leafValues>
            -1.3448737561702728e-01 3.9383989572525024e-01</leafValues></_>
        <_>
          <internalNodes>
            0 -1 15 -1.0214768350124359e-01</internalNodes>
          <leafValues>
            2.6834738254547119e-01 -2.1885094046592712e-01</leafValues></_>
        <_>
          <internalNodes>
            0 -1 140 5.7355381548404694e-02</internalNodes>
          <leafValues>
            -1.3682404160499573e-01 4.5845603942871094e-01</leafValues></_>
        <_>
          <internalNodes>
            0 -1 245 -8.9441733434796333e-03</internalNodes>
          <leafValues>
            3.0293646454811096e-01 -1.7272362112998962e-01</leafValues></_>
        <_>
          <internalNodes>
            0 -1 173 -9.0342797338962555e-02</internalNodes>
          <leafValues>
            -5.8767807483673096e-01 9.7291924059391022e-02</leafValues></_></weakClassifiers></_>
    <!-- stage 4 -->
    <_>
      <maxWeakCount>27</maxWeakCount>
      <stageThreshold>-8.6991250514984131e-01</stageThreshold>
      <weakClassifiers>
        <_>
          <internalNodes>
            0 -1 12 1.1749243363738060e-02</internalNodes>
          <leafValues>
            9.5969289541244507e-03 6.5217393636703491e-01</leafValues></_>
        <_>
          <internalNodes>
            0 -1 119 -8.6083561182022095e-02</internalNodes>
          <leafValues>
            4.1679817438125610e-01 -2.0329429209232330e-01</leafValues></_>
        <_>
          <internalNodes>
            0 -1 55 -3.2409198582172394e-02</internalNodes>
          <leafValues>
            8.1438541412353516e-01 -1.0761138796806335e-01</leafValues></_>
        <_>
          <internalNodes>
            0 -1 145 5.1638111472129822e-02</internalNodes>
          <leafValues>
            1.1789793521165848e-01 -5.4713374376296997e-01</leafValues></_>
        <_>
          <internalNodes>
            0 -1 94 -2.0169120281934738e-02</internalNodes>
          <leafValues>
            6.8693482875823975e-01 -1.0328585654497147e-01</leafValues></_>
        <_>
          <internalNodes>
            0 -1 105 -9.3345725908875465e-03</internalNodes>
          <leafValues>
            5.4051184654235840e-01 -1.2189998477697372e-01</leafValues></_>
        <_>
          <internalNodes>
            0 -1 135 -1.1314857751131058e-02</internalNodes>
          <leafValues>
            6.5366017818450928e-01 -1.0349684953689575e-01</leafValues></_>
        <_>
          <internalNodes>
            0 -1 176 9.6423961222171783e-03</internalNodes>
          <leafValues>
            1.6160559654235840e-01 -4.7092187404632568e-01</leafValues></_>
        <_>
          <internalNodes>
            0 -1 251 -5.6165590649470687e-04</internalNodes>
          <leafValues>
            -2.7934476733207703e-01 2.0189580321311951e-01</leafValues></_>
        <_>
          <internalNodes>
            0 -1 190 1.6575355082750320e-02</internalNodes>
          <leafValues>
            -1.6246220469474792e-01 3.6007860302925110e-01</leafValues></_>
        <_>
          <internalNodes>
            0 -1 91 -2.1560505032539368e-02</internalNodes>
          <leafValues>
            8.3356320858001709e-01 -6.3166722655296326e-02</leafValues></_>
        <_>
          <internalNodes>
            0 -1 232 7.1434751152992249e-03</internalNodes>
          <leafValues>
            -2.0069232583045959e-01 2.6813539862632751e-01</leafValues></_>
        <_>
          <internalNodes>
            0 -1 226 5.0887413322925568e-02</internalNodes>
          <leafValues>
            7.9158298671245575e-02 -8.0993449687957764e-01</leafValues></_>
        <_>
          <internalNodes>
            0 -1 45 -4.6713151037693024e-02</internalNodes>
          <leafValues>
            5.7673507928848267e-01 -1.1398955434560776e-01</leafValues></_>
        <_>
          <internalNodes>
            0 -1 147 2.8547734022140503e-02</internalNodes>
          <leafValues>
            9.0566806495189667e-02 -7.3176062107086182e-01</leafValues></_>
        <_>
          <internalNodes>
            0 -1 16 2.4146075546741486e-01</internalNodes>
          <leafValues>
            7.7178016304969788e-02 -6.0831505060195923e-01</leafValues></_>
        <_>
          <internalNodes>
            0 -1 236 3.1709708855487406e-04</internalNodes>
          <leafValues>
            -2.3109032213687897e-01 2.5117921829223633e-01</leafValues></_>
        <_>
          <internalNodes>
            0 -1 214 1.4220854267477989e-02</internalNodes>
          <leafValues>
            -1.4005364477634430e-01 4.7993537783622742e-01</leafValues></_>
        <_>
          <internalNodes>
            0 -1 28 -8.7289483053609729e-04</internalNodes>
          <leafValues>
            2.0563063025474548e-01 -3.2096606492996216e-01</leafValues></_>
        <_>
          <internalNodes>
            0 -1 159 1.9331242889165878e-02</internalNodes>
          <leafValues>
            -1.6432532668113708e-01 3.6459922790527344e-01</leafValues></_>
        <_>
          <internalNodes>
            0 -1 63 3.7690561264753342e-02</internalNodes>
          <leafValues>
            -6.6478528082370758e-02 7.1641385555267334e-01</leafValues></_>
        <_>
          <internalNodes>
            0 -1 58 -5.1447339355945587e-02</internalNodes>
          <leafValues>
            5.9472447633743286e-01 -8.7343141436576843e-02</leafValues></_>
        <_>
          <internalNodes>
            0 -1 166 -1.8849878013134003e-01</internalNodes>
          <leafValues>
            5.8200979232788086e-01 -7.8023985028266907e-02</leafValues></_>
        <_>
          <internalNodes>
            0 -1 167 1.3698936440050602e-02</internalNodes>
          <leafValues>
            -4.6895809471607208e-02 8.1697458028793335e-01</leafValues></_>
        <_>
          <internalNodes>
            0 -1 83 -3.2512895762920380e-02</internalNodes>
          <leafValues>
            8.2199412584304810e-01 -4.1568066924810410e-02</leafValues></_>
        <_>
          <internalNodes>
            0 -1 68 -1.4789422973990440e-02</internalNodes>
          <leafValues>
            4.4320356845855713e-01 -9.6559472382068634e-02</leafValues></_>
        <_>
          <internalNodes>
            0 -1 127 -2.4303295649588108e-03</internalNodes>
          <leafValues>
            -3.3887544274330139e-01 1.5773476660251617e-01</leafValues></_></weakClassifiers></_>
    <!-- stage 5 -->
    <_>
      <maxWeakCount>28</maxWeakCount>
      <stageThreshold>-8.1613975763320923e-01</stageThreshold>
      <weakClassifiers>
        <_>
          <internalNodes>
            0 -1 18 1.7422035336494446e-02</internalNodes>
          <leafValues>
            8.8906370103359222e-02 7.0808202028274536e-01</leafValues></_>
        <_>
          <internalNodes>
            0 -1 208 8.3274376811459661e-04</internalNodes>
          <leafValues>
            -2.5730594992637634e-01 3.1611621379852295e-01</leafValues></_>
        <_>
          <internalNodes>
            0 -1 38 3.2255843281745911e-02</internalNodes>
          <leafValues>
            -1.3869215548038483e-01 5.5334293842315674e-01</leafValues></_>
        <_>
          <internalNodes>
            0 -1 81 -2.4637410417199135e-02</internalNodes>
          <leafValues>
            8.3131676912307739e-01 -1.0998415201902390e-01</leafValues></_>
        <_>
          <internalNodes>
            0 -1 67 1.6424123197793961e-02</internalNodes>
          <leafValues>
            -1.4118210971355438e-01 4.9043139815330505e-01</leafValues></_>
        <_>
          <internalNodes>
            0 -1 36 -5.3976960480213165e-02</internalNodes>
          <leafValues>
            -3.3090189099311829e-01 2.1551863849163055e-01</leafValues></_>
        <_>
          <internalNodes>
            0 -1 249 2.8865784406661987e-03</internalNodes>
          <leafValues>
            -2.2797839343547821e-01 2.6966264843940735e-01</leafValues></_>
        <_>
          <internalNodes>
            0 -1 99 -3.3184424042701721e-02</internalNodes>
          <leafValues>
            6.5387666225433350e-01 -9.5455348491668701e-02</leafValues></_>
        <_>
          <internalNodes>
            0 -1 240 -8.3975568413734436e-03</internalNodes>
          <leafValues>
            4.2151522636413574e-01 -1.3525156676769257e-01</leafValues></_>
        <_>
          <internalNodes>
            0 -1 27 2.0226183533668518e-01</internalNodes>
          <leafValues>
            1.1166454851627350e-01 -5.7466530799865723e-01</leafValues></_>
        <_>
          <internalNodes>
            0 -1 130 -5.5793803185224533e-02</internalNodes>
          <leafValues>
            -4.0228506922721863e-01 1.5354838967323303e-01</leafValues></_>
        <_>
          <internalNodes>
            0 -1 171 3.4030275419354439e-03</internalNodes>
          <leafValues>
            -2.0332708954811096e-01 3.1558242440223694e-01</leafValues></_>
        <_>
          <internalNodes>
            0 -1 50 6.9563180208206177e-02</internalNodes>
          <leafValues>
            -7.3148094117641449e-02 7.5008690357208252e-01</leafValues></_>
        <_>
          <internalNodes>
            0 -1 129 1.6995152458548546e-02</internalNodes>
          <leafValues>
            -7.4839405715465546e-02 6.6248697042465210e-01</leafValues></_>
        <_>
          <internalNodes>
            0 -1 192 1.9180947542190552e-01</internalNodes>
          <leafValues>
            1.0337922722101212e-01 -5.7443565130233765e-01</leafValues></_>
        <_>
          <internalNodes>
            0 -1 244 5.2287694998085499e-03</internalNodes>
          <leafValues>
            -2.2371144592761993e-01 2.6949384808540344e-01</leafValues></_>
        <_>
          <internalNodes>
            0 -1 150 2.8482263442128897e-03</internalNodes>
          <leafValues>
            1.4515262842178345e-01 -3.9843156933784485e-01</leafValues></_>
        <_>
          <internalNodes>
            0 -1 182 -1.7351980204693973e-04</internalNodes>
          <leafValues>
            -2.0293745398521423e-01 2.7409988641738892e-01</leafValues></_>
        <_>
          <internalNodes>
            0 -1 29 3.0016729608178139e-02</internalNodes>
          <leafValues>
            -8.1529654562473297e-02 6.1707502603530884e-01</leafValues></_>
        <_>
          <internalNodes>
            0 -1 217 8.9088484644889832e-02</internalNodes>
          <leafValues>
            9.8351471126079559e-02 -6.1434966325759888e-01</leafValues></_>
        <_>
          <internalNodes>
            0 -1 37 1.4955383539199829e-01</internalNodes>
          <leafValues>
            1.0444437712430954e-01 -4.7880330681800842e-01</leafValues></_>
        <_>
          <internalNodes>
            0 -1 153 -1.0503202676773071e-01</internalNodes>
          <leafValues>
            -5.1624619960784912e-01 1.2252379208803177e-01</leafValues></_>
        <_>
          <internalNodes>
            0 -1 126 2.8513800352811813e-03</internalNodes>
          <leafValues>
            -2.4237874150276184e-01 2.3765502870082855e-01</leafValues></_>
        <_>
          <internalNodes>
            0 -1 122 1.9889334216713905e-02</internalNodes>
          <leafValues>
            -1.2236893177032471e-01 4.3235501646995544e-01</leafValues></_>
        <_>
          <internalNodes>
            0 -1 221 1.2428110465407372e-02</internalNodes>
          <leafValues>
            -8.9532308280467987e-02 5.4169738292694092e-01</leafValues></_>
        <_>
          <internalNodes>
            0 -1 3 2.9666723683476448e-02</internalNodes>
          <leafValues>
            -5.9132870286703110e-02 7.4682927131652832e-01</leafValues></_>
        <_>
          <internalNodes>
            0 -1 212 6.8843841552734375e-02</internalNodes>
          <leafValues>
            8.4653064608573914e-02 -6.6265219449996948e-01</leafValues></_>
        <_>
          <internalNodes>
            0 -1 178 -1.8925982294604182e-03</internalNodes>
          <leafValues>
            -2.4846971035003662e-01 1.8225742876529694e-01</leafValues></_></weakClassifiers></_>
    <!-- stage 6 -->
    <_>
      <maxWeakCount>31</maxWeakCount>
      <stageThreshold>-8.0524772405624390e-01</stageThreshold>
      <weakClassifiers>
        <_>
          <internalNodes>
            0 -1 25 1.2584839016199112e-02</internalNodes>
          <leafValues>
            7.7059343457221985e-02 6.3130795955657959e-01</leafValues></_>
        <_>
          <internalNodes>
            0 -1 201 2.2156601771712303e-03</internalNodes>
          <leafValues>
            -2.4718858301639557e-01 2.9106658697128296e-01</leafValues></_>
        <_>
          <internalNodes>
            0 -1 92 -2.2251538932323456e-02</internalNodes>
          <leafValues>
            5.2947360277175903e-01 -1.3007725775241852e-01</leafValues></_>
        <_>
          <internalNodes>
            0 -1 62 -2.3862484842538834e-02</internalNodes>
          <leafValues>
            8.0384087562561035e-01 -1.1515279114246368e-01</leafValues></_>
        <_>
          <internalNodes>
            0 -1 49 -5.6979276239871979e-02</internalNodes>
          <leafValues>
            7.1996515989303589e-01 -7.0171929895877838e-02</leafValues></_>
        <_>
          <internalNodes>
            0 -1 89 2.2929614782333374e-01</internalNodes>
          <leafValues>
            1.4252573251724243e-01 -4.8420745134353638e-01</leafValues></_>
        <_>
          <internalNodes>
            0 -1 113 -1.1498592793941498e-01</internalNodes>
          <leafValues>
            -5.4848253726959229e-01 9.3575172126293182e-02</leafValues></_>
        <_>
          <internalNodes>
            0 -1 52 -1.8674705177545547e-02</internalNodes>
          <leafValues>
            4.7206369042396545e-01 -1.1716684699058533e-01</leafValues></_>
        <_>
          <internalNodes>
            0 -1 98 -1.9262300804257393e-02</internalNodes>
          <leafValues>
            6.7074954509735107e-01 -8.3873130381107330e-02</leafValues></_>
        <_>
          <internalNodes>
            0 -1 139 7.0558255538344383e-03</internalNodes>
          <leafValues>
            1.3997137546539307e-01 -3.8891968131065369e-01</leafValues></_>
        <_>
          <internalNodes>
            0 -1 107 -3.6025576293468475e-02</internalNodes>
          <leafValues>
            6.4167380332946777e-01 -8.7002031505107880e-02</leafValues></_>
        <_>
          <internalNodes>
            0 -1 193 6.7253927700221539e-03</internalNodes>
          <leafValues>
            -1.5410117805004120e-01 3.2031708955764771e-01</leafValues></_>
        <_>
          <internalNodes>
            0 -1 122 1.7903035506606102e-02</internalNodes>
          <leafValues>
            -1.4221061766147614e-01 3.5976487398147583e-01</leafValues></_>
        <_>
          <internalNodes>
            0 -1 238 2.6395265012979507e-03</internalNodes>
          <leafValues>
            -2.4204215407371521e-01 2.0433849096298218e-01</leafValues></_>
        <_>
          <internalNodes>
            0 -1 218 8.9221624657511711e-03</internalNodes>
          <leafValues>
            -1.3315911591053009e-01 3.7605172395706177e-01</leafValues></_>
        <_>
          <internalNodes>
            0 -1 195 8.3790726959705353e-02</internalNodes>
          <leafValues>
            8.2146190106868744e-02 -5.5629909038543701e-01</leafValues></_>
        <_>
          <internalNodes>
            0 -1 56 8.1157516688108444e-03</internalNodes>
          <leafValues>
            -1.5074229240417480e-01 3.1108966469764709e-01</leafValues></_>
        <_>
          <internalNodes>
            0 -1 30 -1.2643340975046158e-02</internalNodes>
          <leafValues>
            3.8451367616653442e-01 -1.2912516295909882e-01</leafValues></_>
        <_>
          <internalNodes>
            0 -1 223 9.3659069389104843e-03</internalNodes>
          <leafValues>
            -1.0675042867660522e-01 4.1638752818107605e-01</leafValues></_>
        <_>
          <internalNodes>
            0 -1 39 2.0567814353853464e-03</internalNodes>
          <leafValues>
            1.4219051599502563e-01 -3.0039209127426147e-01</leafValues></_>
        <_>
          <internalNodes>
            0 -1 116 -1.8091782927513123e-02</internalNodes>
          <leafValues>
            6.0638695955276489e-01 -8.2239940762519836e-02</leafValues></_>
        <_>
          <internalNodes>
            0 -1 115 -3.2030198723077774e-02</internalNodes>
          <leafValues>
            -5.8566910028457642e-01 9.0553656220436096e-02</leafValues></_>
        <_>
          <internalNodes>
            0 -1 21 1.7318689823150635e-01</internalNodes>
          <leafValues>
            4.8466008156538010e-02 -8.2027876377105713e-01</leafValues></_>
        <_>
          <internalNodes>
            0 -1 22 -1.4637619256973267e-01</internalNodes>
          <leafValues>
            2.3028776049613953e-01 -1.8981678783893585e-01</leafValues></_>
        <_>
          <internalNodes>
            0 -1 4 2.6390689611434937e-01</internalNodes>
          <leafValues>
            6.7599624395370483e-02 -7.1198648214340210e-01</leafValues></_>
        <_>
          <internalNodes>
            0 -1 11 -2.1466409787535667e-02</internalNodes>
          <leafValues>
            -4.4194698333740234e-01 1.0202259570360184e-01</leafValues></_>
        <_>
          <internalNodes>
            0 -1 35 -3.3200804144144058e-02</internalNodes>
          <leafValues>
            8.9185887575149536e-01 -6.2068630009889603e-02</leafValues></_>
        <_>
          <internalNodes>
            0 -1 75 -2.0199052989482880e-02</internalNodes>
          <leafValues>
            6.2404167652130127e-01 -5.1465183496475220e-02</leafValues></_>
        <_>
          <internalNodes>
            0 -1 222 -1.9608773291110992e-02</internalNodes>
          <leafValues>
            4.4782143831253052e-01 -9.2130161821842194e-02</leafValues></_>
        <_>
          <internalNodes>
            0 -1 191 6.2773898243904114e-03</internalNodes>
          <leafValues>
            -1.4792019128799438e-01 3.0380547046661377e-01</leafValues></_>
        <_>
          <internalNodes>
            0 -1 230 2.3515543434768915e-03</internalNodes>
          <leafValues>
            -1.9927862286567688e-01 2.7054455876350403e-01</leafValues></_></weakClassifiers></_>
    <!-- stage 7 -->
    <_>
      <maxWeakCount>29</maxWeakCount>
      <stageThreshold>-7.7982395887374878e-01</stageThreshold>
      <weakClassifiers>
        <_>
          <internalNodes>
            0 -1 2 1.0478565469384193e-02</internalNodes>
          <leafValues>
            5.9311981312930584e-03 5.5290371179580688e-01</leafValues></_>
        <_>
          <internalNodes>
            0 -1 84 -3.1922902911901474e-02</internalNodes>
          <leafValues>
            5.5147749185562134e-01 -1.1548360437154770e-01</leafValues></_>
        <_>
          <internalNodes>
            0 -1 40 2.8132987208664417e-03</internalNodes>
          <leafValues>
            2.1507942676544189e-01 -3.3566284179687500e-01</leafValues></_>
        <_>
          <internalNodes>
            0 -1 110 -5.3108441643416882e-03</internalNodes>
          <leafValues>
            4.8974469304084778e-01 -1.9846810400485992e-01</leafValues></_>
        <_>
          <internalNodes>
            0 -1 154 4.2993258684873581e-03</internalNodes>
          <leafValues>
            -1.4105397462844849e-01 4.0372082591056824e-01</leafValues></_>
        <_>
          <internalNodes>
            0 -1 197 2.0565617829561234e-02</internalNodes>
          <leafValues>
            -2.3421941697597504e-01 2.8768792748451233e-01</leafValues></_>
        <_>
          <internalNodes>
            0 -1 198 -4.8456778749823570e-03</internalNodes>
          <leafValues>
            -4.5585772395133972e-01 1.2252819538116455e-01</leafValues></_>
        <_>
          <internalNodes>
            0 -1 76 3.5661883652210236e-02</internalNodes>
          <leafValues>
            -9.7711317241191864e-02 7.3760628700256348e-01</leafValues></_>
        <_>
          <internalNodes>
            0 -1 117 -2.2635973989963531e-02</internalNodes>
          <leafValues>
            6.7960143089294434e-01 -7.1011275053024292e-02</leafValues></_>
        <_>
          <internalNodes>
            0 -1 53 6.1089105904102325e-02</internalNodes>
          <leafValues>
            -6.5525822341442108e-02 8.1018769741058350e-01</leafValues></_>
        <_>
          <internalNodes>
            0 -1 64 -5.0986960530281067e-02</internalNodes>
          <leafValues>
            7.2304201126098633e-01 -7.2301089763641357e-02</leafValues></_>
        <_>
          <internalNodes>
            0 -1 133 1.5652479231357574e-01</internalNodes>
          <leafValues>
            8.1268131732940674e-02 -8.0923175811767578e-01</leafValues></_>
        <_>
          <internalNodes>
            0 -1 46 8.5825338959693909e-02</internalNodes>
          <leafValues>
            -1.1639783531427383e-01 5.2988499402999878e-01</leafValues></_>
        <_>
          <internalNodes>
            0 -1 82 2.2563576698303223e-02</internalNodes>
          <leafValues>
            -5.6736014783382416e-02 8.6711716651916504e-01</leafValues></_>
        <_>
          <internalNodes>
            0 -1 250 -4.0854820981621742e-03</internalNodes>
          <leafValues>
            -3.7898230552673340e-01 1.5798898041248322e-01</leafValues></_>
        <_>
          <internalNodes>
            0 -1 131 -3.7966802716255188e-02</internalNodes>
          <leafValues>
            1.9449512660503387e-01 -2.6996114850044250e-01</leafValues></_>
        <_>
          <internalNodes>
            0 -1 170 -5.4057314991950989e-03</internalNodes>
          <leafValues>
            -2.9309919476509094e-01 2.1640546619892120e-01</leafValues></_>
        <_>
          <internalNodes>
            0 -1 225 4.4289447367191315e-02</internalNodes>
          <leafValues>
            9.6485637128353119e-02 -6.0172712802886963e-01</leafValues></_>
        <_>
          <internalNodes>
            0 -1 199 7.7086673118174076e-03</internalNodes>
          <leafValues>
            -1.8598699569702148e-01 3.2238429784774780e-01</leafValues></_>
        <_>
          <internalNodes>
            0 -1 160 1.2002352625131607e-02</internalNodes>
          <leafValues>
            -1.5103219449520111e-01 3.8791042566299438e-01</leafValues></_>
        <_>
          <internalNodes>
            0 -1 164 -3.4634361509233713e-03</internalNodes>
          <leafValues>
            -2.8827548027038574e-01 1.8129877746105194e-01</leafValues></_>
        <_>
          <internalNodes>
            0 -1 114 3.7568639963865280e-02</internalNodes>
          <leafValues>
            -7.9422622919082642e-02 7.0326083898544312e-01</leafValues></_>
        <_>
          <internalNodes>
            0 -1 118 -4.9874135293066502e-03</internalNodes>
          <leafValues>
            -5.3059101104736328e-01 1.1699846386909485e-01</leafValues></_>
        <_>
          <internalNodes>
            0 -1 17 1.8614271655678749e-02</internalNodes>
          <leafValues>
            -7.6926298439502716e-02 8.2493561506271362e-01</leafValues></_>
        <_>
          <internalNodes>
            0 -1 42 -1.6449498943984509e-03</internalNodes>
          <leafValues>
            -2.6963597536087036e-01 2.1061724424362183e-01</leafValues></_>
        <_>
          <internalNodes>
            0 -1 9 2.5967484712600708e-01</internalNodes>
          <leafValues>
            8.1088401377201080e-02 -6.3355416059494019e-01</leafValues></_>
        <_>
          <internalNodes>
            0 -1 211 -3.1407589558511972e-03</internalNodes>
          <leafValues>
            -2.9980421066284180e-01 2.0209781825542450e-01</leafValues></_>
        <_>
          <internalNodes>
            0 -1 247 -1.7735832370817661e-03</internalNodes>
          <leafValues>
            -3.3693912625312805e-01 1.7538943886756897e-01</leafValues></_>
        <_>
          <internalNodes>
            0 -1 146 5.4439477622509003e-02</internalNodes>
          <leafValues>
            9.7602538764476776e-02 -6.3193625211715698e-01</leafValues></_></weakClassifiers></_>
    <!-- stage 8 -->
    <_>
      <maxWeakCount>22</maxWeakCount>
      <stageThreshold>-9.4471347332000732e-01</stageThreshold>
      <weakClassifiers>
        <_>
          <internalNodes>
            0 -1 51 1.3786701019853354e-03</internalNodes>
          <leafValues>
            9.1144467437319205e-18 5.5970150232315063e-01</leafValues></_>
        <_>
          <internalNodes>
            0 -1 183 3.5153455100953579e-03</internalNodes>
          <leafValues>
            -1.9702081382274628e-01 4.1427546739578247e-01</leafValues></_>
        <_>
          <internalNodes>
            0 -1 96 -4.6834493987262249e-03</internalNodes>
          <leafValues>
            6.2268763780593872e-01 -1.1516595631837845e-01</leafValues></_>
        <_>
          <internalNodes>
            0 -1 44 -3.9197891950607300e-02</internalNodes>
          <leafValues>
            5.3372013568878174e-01 -1.9467605650424957e-01</leafValues></_>
        <_>
          <internalNodes>
            0 -1 148 -6.5788021311163902e-03</internalNodes>
          <leafValues>
            5.7012903690338135e-01 -1.3565930724143982e-01</leafValues></_>
        <_>
          <internalNodes>
            0 -1 87 9.2610195279121399e-03</internalNodes>
          <leafValues>
            -1.6791926324367523e-01 4.4403278827667236e-01</leafValues></_>
        <_>
          <internalNodes>
            0 -1 175 8.7314657866954803e-04</internalNodes>
          <leafValues>
            -1.8590734899044037e-01 4.5114532113075256e-01</leafValues></_>
        <_>
          <internalNodes>
            0 -1 229 1.0157980024814606e-02</internalNodes>
          <leafValues>
            -1.2164502590894699e-01 6.1091631650924683e-01</leafValues></_>
        <_>
          <internalNodes>
            0 -1 252 -5.0623499555513263e-04</internalNodes>
          <leafValues>
            -3.6328965425491333e-01 2.2074317932128906e-01</leafValues></_>
        <_>
          <internalNodes>
            0 -1 234 9.3660876154899597e-03</internalNodes>
          <leafValues>
            -2.0650704205036163e-01 3.9174684882164001e-01</leafValues></_>
        <_>
          <internalNodes>
            0 -1 65 -1.4715858269482851e-03</internalNodes>
          <leafValues>
            3.9572331309318542e-01 -1.8298064172267914e-01</leafValues></_>
        <_>
          <internalNodes>
            0 -1 111 -5.5618360638618469e-03</internalNodes>
          <leafValues>
            5.3023898601531982e-01 -1.4341852068901062e-01</leafValues></_>
        <_>
          <internalNodes>
            0 -1 227 -2.1391117945313454e-02</internalNodes>
          <leafValues>
            1. -6.5330475568771362e-02</leafValues></_>
        <_>
          <internalNodes>
            0 -1 41 -2.6438909117132425e-04</internalNodes>
          <leafValues>
            -3.2578825950622559e-01 2.4034270644187927e-01</leafValues></_>
        <_>
          <internalNodes>
            0 -1 0 1.4524580910801888e-04</internalNodes>
          <leafValues>
            2.7840441465377808e-01 -2.9089817404747009e-01</leafValues></_>
        <_>
          <internalNodes>
            0 -1 69 3.1663771718740463e-02</internalNodes>
          <leafValues>
            -8.6118906736373901e-02 8.7949627637863159e-01</leafValues></_>
        <_>
          <internalNodes>
            0 -1 185 5.6204514112323523e-04</internalNodes>
          <leafValues>
            -1.4860491454601288e-01 4.6095663309097290e-01</leafValues></_>
        <_>
          <internalNodes>
            0 -1 235 -6.3433987088501453e-04</internalNodes>
          <leafValues>
            -2.9012721776962280e-01 2.5966429710388184e-01</leafValues></_>
        <_>
          <internalNodes>
            0 -1 163 -1.9458474707789719e-04</internalNodes>
          <leafValues>
            -2.4144966900348663e-01 3.3853399753570557e-01</leafValues></_>
        <_>
          <internalNodes>
            0 -1 120 -7.2903223335742950e-03</internalNodes>
          <leafValues>
            -2.6016920804977417e-01 3.1524267792701721e-01</leafValues></_>
        <_>
          <internalNodes>
            0 -1 169 -4.4779911637306213e-02</internalNodes>
          <leafValues>
            -8.5739403963088989e-01 9.8703250288963318e-02</leafValues></_>
        <_>
          <internalNodes>
            0 -1 8 -6.4002478029578924e-04</internalNodes>
          <leafValues>
            -4.1177132725715637e-01 1.8660081923007965e-01</leafValues></_></weakClassifiers></_>
    <!-- stage 9 -->
    <_>
      <maxWeakCount>16</maxWeakCount>
      <stageThreshold>-5.6877940893173218e-01</stageThreshold>
      <weakClassifiers>
        <_>
          <internalNodes>
            0 -1 179 -7.4658030644059181e-03</internalNodes>
          <leafValues>
            -7.7170416712760925e-02 5.5008488893508911e-01</leafValues></_>
        <_>
          <internalNodes>
            0 -1 194 -1.5701740980148315e-02</internalNodes>
          <leafValues>
            -3.3967119455337524e-01 3.6311736702919006e-01</leafValues></_>
        <_>
          <internalNodes>
            0 -1 24 1.6859881579875946e-02</internalNodes>
          <leafValues>
            -1.2989968061447144e-01 9.5008778572082520e-01</leafValues></_>
        <_>
          <internalNodes>
            0 -1 168 8.5578411817550659e-03</internalNodes>
          <leafValues>
            -1.8171745538711548e-01 6.4653313159942627e-01</leafValues></_>
        <_>
          <internalNodes>
            0 -1 132 -1.4691088348627090e-02</internalNodes>
          <leafValues>
            9.5435756444931030e-01 -8.2731187343597412e-02</leafValues></_>
        <_>
          <internalNodes>
            0 -1 90 -2.0618379116058350e-02</internalNodes>
          <leafValues>
            7.4057638645172119e-01 -1.1794153600931168e-01</leafValues></_>
        <_>
          <internalNodes>
            0 -1 96 -5.4808622226119041e-03</internalNodes>
          <leafValues>
            8.5894125699996948e-01 -9.2264652252197266e-02</leafValues></_>
        <_>
          <internalNodes>
            0 -1 244 2.4969025980681181e-04</internalNodes>
          <leafValues>
            -3.5894316434860229e-01 3.2758316397666931e-01</leafValues></_>
        <_>
          <internalNodes>
            0 -1 231 3.1387561466544867e-03</internalNodes>
          <leafValues>
            -2.3529717326164246e-01 4.6162366867065430e-01</leafValues></_>
        <_>
          <internalNodes>
            0 -1 204 8.7915221229195595e-04</internalNodes>
          <leafValues>
            -1.9960439205169678e-01 5.0602531433105469e-01</leafValues></_>
        <_>
          <internalNodes>
            0 -1 57 -1.3022131286561489e-02</internalNodes>
          <leafValues>
            5.9723442792892456e-01 -1.9231051206588745e-01</leafValues></_>
        <_>
          <internalNodes>
            0 -1 23 -9.1205537319183350e-03</internalNodes>
          <leafValues>
            6.1243796348571777e-01 -1.6950152814388275e-01</leafValues></_>
        <_>
          <internalNodes>
            0 -1 123 1.0389383882284164e-02</internalNodes>
          <leafValues>
            2.0517981052398682e-01 -6.4226943254470825e-01</leafValues></_>
        <_>
          <internalNodes>
            0 -1 161 6.8199029192328453e-04</internalNodes>
          <leafValues>
            -2.2469972074031830e-01 4.8901596665382385e-01</leafValues></_>
        <_>
          <internalNodes>
            0 -1 220 6.1722798272967339e-03</internalNodes>
          <leafValues>
            2.1616739034652710e-01 -5.3428483009338379e-01</leafValues></_>
        <_>
          <internalNodes>
            0 -1 219 -3.2638807315379381e-03</internalNodes>
          <leafValues>
            -5.4829645156860352e-01 2.0086720585823059e-01</leafValues></_></weakClassifiers></_>
    <!-- stage 10 -->
    <_>
      <maxWeakCount>10</maxWeakCount>
      <stageThreshold>-1.0471178293228149e+00</stageThreshold>
      <weakClassifiers>
        <_>
          <internalNodes>
            0 -1 121 -5.6413275888189673e-04</internalNodes>
          <leafValues>
            7.8021979331970215e-01 2.9850745573639870e-02</leafValues></_>
        <_>
          <internalNodes>
            0 -1 104 -7.4434899725019932e-03</internalNodes>
          <leafValues>
            1. -1.1681777238845825e-01</leafValues></_>
        <_>
          <internalNodes>
            0 -1 112 -3.1415114644914865e-03</internalNodes>
          <leafValues>
            8.9580470323562622e-01 -1.8312932550907135e-01</leafValues></_>
        <_>
          <internalNodes>
            0 -1 137 4.8509353655390441e-04</internalNodes>
          <leafValues>
            -1.9134880602359772e-01 8.3219611644744873e-01</leafValues></_>
        <_>
          <internalNodes>
            0 -1 188 1.2202929938212037e-03</internalNodes>
          <leafValues>
            -3.0076336860656738e-01 6.4199924468994141e-01</leafValues></_>
        <_>
          <internalNodes>
            0 -1 186 -1.0665992740541697e-03</internalNodes>
          <leafValues>
            6.7343056201934814e-01 -2.6273190975189209e-01</leafValues></_>
        <_>
          <internalNodes>
            0 -1 26 -8.6843848228454590e-02</internalNodes>
          <leafValues>
            1. -1.3865889608860016e-01</leafValues></_>
        <_>
          <internalNodes>
            0 -1 172 -7.1652128826826811e-04</internalNodes>
          <leafValues>
            7.1275454759597778e-01 -1.7414775490760803e-01</leafValues></_>
        <_>
          <internalNodes>
            0 -1 174 -2.2911028936505318e-03</internalNodes>
          <leafValues>
            -3.4923133254051208e-01 5.0394332408905029e-01</leafValues></_>
        <_>
          <internalNodes>
            0 -1 78 1.8404740840196609e-02</internalNodes>
          <leafValues>
            3.9617353677749634e-01 -4.9879831075668335e-01</leafValues></_></weakClassifiers></_>
    <!-- stage 11 -->
    <_>
      <maxWeakCount>7</maxWeakCount>
      <stageThreshold>-5.0273108482360840e-01</stageThreshold>
      <weakClassifiers>
        <_>
          <internalNodes>
            0 -1 34 -1.3722009956836700e-02</internalNodes>
          <leafValues>
            7.7909272909164429e-01 -2.4173027276992798e-01</leafValues></_>
        <_>
          <internalNodes>
            0 -1 162 2.8879907913506031e-03</internalNodes>
          <leafValues>
            1. -2.4715778231620789e-01</leafValues></_>
        <_>
          <internalNodes>
            0 -1 181 2.0671073347330093e-02</internalNodes>
          <leafValues>
            5.1759821176528931e-01 -6.7863589525222778e-01</leafValues></_>
        <_>
          <internalNodes>
            0 -1 1 5.2169885020703077e-04</internalNodes>
          <leafValues>
            6.6929405927658081e-01 -5.1133763790130615e-01</leafValues></_>
        <_>
          <internalNodes>
            0 -1 66 -6.3688424415886402e-04</internalNodes>
          <leafValues>
            9.3275278806686401e-01 -3.1670969724655151e-01</leafValues></_>
        <_>
          <internalNodes>
            0 -1 149 -1.9279602565802634e-04</internalNodes>
          <leafValues>
            8.0798369646072388e-01 -3.6913865804672241e-01</leafValues></_>
        <_>
          <internalNodes>
            0 -1 157 3.7433840334415436e-03</internalNodes>
          <leafValues>
            8.6644762754440308e-01 -3.5507825016975403e-01</leafValues></_></weakClassifiers></_></stages>
  <features>
    <_>
      <rects>
        <_>
          0 0 2 1 -1.</_>
        <_>
          1 0 1 1 2.</_></rects>
      <tilted>0</tilted></_>
    <_>
      <rects>
        <_>
          0 0 3 2 -1.</_>
        <_>
          1 0 1 2 3.</_></rects>
      <tilted>0</tilted></_>
    <_>
      <rects>
        <_>
          0 0 2 18 -1.</_>
        <_>
          1 0 1 18 2.</_></rects>
      <tilted>0</tilted></_>
    <_>
      <rects>
        <_>
          0 0 6 6 -1.</_>
        <_>
          0 0 3 3 2.</_>
        <_>
          3 3 3 3 2.</_></rects>
      <tilted>0</tilted></_>
    <_>
      <rects>
        <_>
          0 0 6 20 -1.</_>
        <_>
          0 10 6 10 2.</_></rects>
      <tilted>0</tilted></_>
    <_>
      <rects>
        <_>
          0 0 20 1 -1.</_>
        <_>
          10 0 10 1 2.</_></rects>
      <tilted>0</tilted></_>
    <_>
      <rects>
        <_>
          0 1 2 16 -1.</_>
        <_>
          1 1 1 16 2.</_></rects>
      <tilted>0</tilted></_>
    <_>
      <rects>
        <_>
          0 1 2 18 -1.</_>
        <_>
          1 1 1 18 2.</_></rects>
      <tilted>0</tilted></_>
    <_>
      <rects>
        <_>
          0 2 2 3 -1.</_>
        <_>
          1 2 1 3 2.</_></rects>
      <tilted>0</tilted></_>
    <_>
      <rects>
        <_>
          0 2 8 18 -1.</_>
        <_>
          0 11 8 9 2.</_></rects>
      <tilted>0</tilted></_>
    <_>
      <rects>
        <_>
          0 3 2 15 -1.</_>
        <_>
          1 3 1 15 2.</_></rects>
      <tilted>0</tilted></_>
    <_>
      <rects>
        <_>
          0 4 1 16 -1.</_>
        <_>
          0 12 1 8 2.</_></rects>
      <tilted>0</tilted></_>
    <_>
      <rects>
        <_>
          0 4 2 11 -1.</_>
        <_>
          1 4 1 11 2.</_></rects>
      <tilted>0</tilted></_>
    <_>
      <rects>
        <_>
          0 4 2 13 -1.</_>
        <_>
          1 4 1 13 2.</_></rects>
      <tilted>0</tilted></_>
    <_>
      <rects>
        <_>
          0 4 6 12 -1.</_>
        <_>
          2 4 2 12 3.</_></rects>
      <tilted>0</tilted></_>
    <_>
      <rects>
        <_>
          0 4 16 15 -1.</_>
        <_>
          8 4 8 15 2.</_></rects>
      <tilted>0</tilted></_>
    <_>
      <rects>
        <_>
          0 4 10 16 -1.</_>
        <_>
          0 12 10 8 2.</_></rects>
      <tilted>0</tilted></_>
    <_>
      <rects>
        <_>
          0 4 13 3 -1.</_>
        <_>
          0 5 13 1 3.</_></rects>
      <tilted>0</tilted></_>
    <_>
      <rects>
        <_>
          0 5 2 11 -1.</_>
        <_>
          1 5 1 11 2.</_></rects>
      <tilted>0</tilted></_>
    <_>
      <rects>
        <_>
          0 5 2 13 -1.</_>
        <_>
          1 5 1 13 2.</_></rects>
      <tilted>0</tilted></_>
    <_>
      <rects>
        <_>
          0 5 2 15 -1.</_>
        <_>
          1 5 1 15 2.</_></rects>
      <tilted>0</tilted></_>
    <_>
      <rects>
        <_>
          0 5 12 9 -1.</_>
        <_>
          4 5 4 9 3.</_></rects>
      <tilted>0</tilted></_>
    <_>
      <rects>
        <_>
          0 5 18 15 -1.</_>
        <_>
          9 5 9 15 2.</_></rects>
      <tilted>0</tilted></_>
    <_>
      <rects>
        <_>
          0 5 17 3 -1.</_>
        <_>
          0 6 17 1 3.</_></rects>
      <tilted>0</tilted></_>
    <_>
      <rects>
        <_>
          0 6 3 3 -1.</_>
        <_>
          1 6 1 3 3.</_></rects>
      <tilted>0</tilted></_>
    <_>
      <rects>
        <_>
          0 6 2 9 -1.</_>
        <_>
          1 6 1 9 2.</_></rects>
      <tilted>0</tilted></_>
    <_>
      <rects>
        <_>
          0 6 8 12 -1.</_>
        <_>
          4 6 4 12 2.</_></rects>
      <tilted>0</tilted></_>
    <_>
      <rects>
        <_>
          0 6 10 14 -1.</_>
        <_>
          0 13 10 7 2.</_></rects>
      <tilted>0</tilted></_>
    <_>
      <rects>
        <_>
          0 6 20 8 -1.</_>
        <_>
          10 6 10 8 2.</_></rects>
      <tilted>0</tilted></_>
    <_>
      <rects>
        <_>
          0 7 4 12 -1.</_>
        <_>
          0 7 2 6 2.</_>
        <_>
          2 13 2 6 2.</_></rects>
      <tilted>0</tilted></_>
    <_>
      <rects>
        <_>
          0 7 4 7 -1.</_>
        <_>
          2 7 2 7 2.</_></rects>
      <tilted>0</tilted></_>
    <_>
      <rects>
        <_>
          0 8 6 5 -1.</_>
        <_>
          2 8 2 5 3.</_></rects>
      <tilted>0</tilted></_>
    <_>
      <rects>
        <_>
          0 8 12 12 -1.</_>
        <_>
          0 14 12 6 2.</_></rects>
      <tilted>0</tilted></_>
    <_>
      <rects>
        <_>
          0 9 20 3 -1.</_>
        <_>
          10 9 10 3 2.</_></rects>
      <tilted>0</tilted></_>
    <_>
      <rects>
        <_>
          0 10 16 6 -1.</_>
        <_>
          8 10 8 6 2.</_></rects>
      <tilted>0</tilted></_>
    <_>
      <rects>
        <_>
          0 11 2 9 -1.</_>
        <_>
          0 14 2 3 3.</_></rects>
      <tilted>0</tilted></_>
    <_>
      <rects>
        <_>
          0 11 20 9 -1.</_>
        <_>
          0 14 20 3 3.</_></rects>
      <tilted>0</tilted></_>
    <_>
      <rects>
        <_>
          0 12 17 8 -1.</_>
        <_>
          0 16 17 4 2.</_></rects>
      <tilted>0</tilted></_>
    <_>
      <rects>
        <_>
          0 13 8 6 -1.</_>
        <_>
          0 13 4 3 2.</_>
        <_>
          4 16 4 3 2.</_></rects>
      <tilted>0</tilted></_>
    <_>
      <rects>
        <_>
          0 14 1 4 -1.</_>
        <_>
          0 16 1 2 2.</_></rects>
      <tilted>0</tilted></_>
    <_>
      <rects>
        <_>
          0 14 1 6 -1.</_>
        <_>
          0 17 1 3 2.</_></rects>
      <tilted>0</tilted></_>
    <_>
      <rects>
        <_>
          0 17 2 1 -1.</_>
        <_>
          1 17 1 1 2.</_></rects>
      <tilted>0</tilted></_>
    <_>
      <rects>
        <_>
          0 17 4 3 -1.</_>
        <_>
          0 18 4 1 3.</_></rects>
      <tilted>0</tilted></_>
    <_>
      <rects>
        <_>
          0 18 6 2 -1.</_>
        <_>
          0 19 6 1 2.</_></rects>
      <tilted>0</tilted></_>
    <_>
      <rects>
        <_>
          1 0 4 14 -1.</_>
        <_>
          1 0 2 7 2.</_>
        <_>
          3 7 2 7 2.</_></rects>
      <tilted>0</tilted></_>
    <_>
      <rects>
        <_>
          1 0 4 16 -1.</_>
        <_>
          1 0 2 8 2.</_>
        <_>
          3 8 2 8 2.</_></rects>
      <tilted>0</tilted></_>
    <_>
      <rects>
        <_>
          1 0 18 9 -1.</_>
        <_>
          7 0 6 9 3.</_></rects>
      <tilted>0</tilted></_>
    <_>
      <rects>
        <_>
          1 1 4 8 -1.</_>
        <_>
          1 1 2 4 2.</_>
        <_>
          3 5 2 4 2.</_></rects>
      <tilted>0</tilted></_>
    <_>
      <rects>
        <_>
          1 1 2 15 -1.</_>
        <_>
          1 6 2 5 3.</_></rects>
      <tilted>0</tilted></_>
    <_>
      <rects>
        <_>
          1 1 4 14 -1.</_>
        <_>
          1 1 2 7 2.</_>
        <_>
          3 8 2 7 2.</_></rects>
      <tilted>0</tilted></_>
    <_>
      <rects>
        <_>
          1 1 3 12 -1.</_>
        <_>
          1 5 3 4 3.</_></rects>
      <tilted>0</tilted></_>
    <_>
      <rects>
        <_>
          1 2 3 18 -1.</_>
        <_>
          2 2 1 18 3.</_></rects>
      <tilted>0</tilted></_>
    <_>
      <rects>
        <_>
          1 2 4 6 -1.</_>
        <_>
          1 2 2 3 2.</_>
        <_>
          3 5 2 3 2.</_></rects>
      <tilted>0</tilted></_>
    <_>
      <rects>
        <_>
          1 2 2 12 -1.</_>
        <_>
          1 6 2 4 3.</_></rects>
      <tilted>0</tilted></_>
    <_>
      <rects>
        <_>
          1 2 4 8 -1.</_>
        <_>
          1 2 2 4 2.</_>
        <_>
          3 6 2 4 2.</_></rects>
      <tilted>0</tilted></_>
    <_>
      <rects>
        <_>
          1 2 6 6 -1.</_>
        <_>
          1 2 3 3 2.</_>
        <_>
          4 5 3 3 2.</_></rects>
      <tilted>0</tilted></_>
    <_>
      <rects>
        <_>
          1 3 2 11 -1.</_>
        <_>
          2 3 1 11 2.</_></rects>
      <tilted>0</tilted></_>
    <_>
      <rects>
        <_>
          1 3 4 6 -1.</_>
        <_>
          1 3 2 3 2.</_>
        <_>
          3 6 2 3 2.</_></rects>
      <tilted>0</tilted></_>
    <_>
      <rects>
        <_>
          1 3 2 15 -1.</_>
        <_>
          1 8 2 5 3.</_></rects>
      <tilted>0</tilted></_>
    <_>
      <rects>
        <_>
          1 3 6 8 -1.</_>
        <_>
          3 3 2 8 3.</_></rects>
      <tilted>0</tilted></_>
    <_>
      <rects>
        <_>
          1 3 6 3 -1.</_>
        <_>
          4 3 3 3 2.</_></rects>
      <tilted>0</tilted></_>
    <_>
      <rects>
        <_>
          1 4 2 7 -1.</_>
        <_>
          2 4 1 7 2.</_></rects>
      <tilted>0</tilted></_>
    <_>
      <rects>
        <_>
          1 4 6 2 -1.</_>
        <_>
          3 4 2 2 3.</_></rects>
      <tilted>0</tilted></_>
    <_>
      <rects>
        <_>
          1 4 2 9 -1.</_>
        <_>
          1 7 2 3 3.</_></rects>
      <tilted>0</tilted></_>
    <_>
      <rects>
        <_>
          1 4 4 12 -1.</_>
        <_>
          1 4 2 6 2.</_>
        <_>
          3 10 2 6 2.</_></rects>
      <tilted>0</tilted></_>
    <_>
      <rects>
        <_>
          1 5 4 2 -1.</_>
        <_>
          1 6 4 1 2.</_></rects>
      <tilted>0</tilted></_>
    <_>
      <rects>
        <_>
          1 5 8 3 -1.</_>
        <_>
          1 6 8 1 3.</_></rects>
      <tilted>0</tilted></_>
    <_>
      <rects>
        <_>
          1 6 3 6 -1.</_>
        <_>
          2 6 1 6 3.</_></rects>
      <tilted>0</tilted></_>
    <_>
      <rects>
        <_>
          1 6 4 6 -1.</_>
        <_>
          1 6 2 3 2.</_>
        <_>
          3 9 2 3 2.</_></rects>
      <tilted>0</tilted></_>
    <_>
      <rects>
        <_>
          1 6 2 8 -1.</_>
        <_>
          1 10 2 4 2.</_></rects>
      <tilted>0</tilted></_>
    <_>
      <rects>
        <_>
          1 6 3 4 -1.</_>
        <_>
          1 8 3 2 2.</_></rects>
      <tilted>0</tilted></_>
    <_>
      <rects>
        <_>
          1 7 3 5 -1.</_>
        <_>
          2 7 1 5 3.</_></rects>
      <tilted>0</tilted></_>
    <_>
      <rects>
        <_>
          1 8 2 9 -1.</_>
        <_>
          1 11 2 3 3.</_></rects>
      <tilted>0</tilted></_>
    <_>
      <rects>
        <_>
          1 8 4 6 -1.</_>
        <_>
          1 8 2 3 2.</_>
        <_>
          3 11 2 3 2.</_></rects>
      <tilted>0</tilted></_>
    <_>
      <rects>
        <_>
          1 9 3 3 -1.</_>
        <_>
          2 9 1 3 3.</_></rects>
      <tilted>0</tilted></_>
    <_>
      <rects>
        <_>
          1 10 4 6 -1.</_>
        <_>
          1 10 2 3 2.</_>
        <_>
          3 13 2 3 2.</_></rects>
      <tilted>0</tilted></_>
    <_>
      <rects>
        <_>
          1 12 6 6 -1.</_>
        <_>
          1 12 3 3 2.</_>
        <_>
          4 15 3 3 2.</_></rects>
      <tilted>0</tilted></_>
    <_>
      <rects>
        <_>
          1 12 6 8 -1.</_>
        <_>
          1 12 3 4 2.</_>
        <_>
          4 16 3 4 2.</_></rects>
      <tilted>0</tilted></_>
    <_>
      <rects>
        <_>
          1 12 16 4 -1.</_>
        <_>
          1 12 8 2 2.</_>
        <_>
          9 14 8 2 2.</_></rects>
      <tilted>0</tilted></_>
    <_>
      <rects>
        <_>
          1 13 6 6 -1.</_>
        <_>
          1 13 3 3 2.</_>
        <_>
          4 16 3 3 2.</_></rects>
      <tilted>0</tilted></_>
    <_>
      <rects>
        <_>
          1 14 8 3 -1.</_>
        <_>
          5 14 4 3 2.</_></rects>
      <tilted>0</tilted></_>
    <_>
      <rects>
        <_>
          1 16 6 2 -1.</_>
        <_>
          4 16 3 2 2.</_></rects>
      <tilted>0</tilted></_>
    <_>
      <rects>
        <_>
          2 0 1 9 -1.</_>
        <_>
          2 3 1 3 3.</_></rects>
      <tilted>0</tilted></_>
    <_>
      <rects>
        <_>
          2 0 4 8 -1.</_>
        <_>
          2 0 2 4 2.</_>
        <_>
          4 4 2 4 2.</_></rects>
      <tilted>0</tilted></_>
    <_>
      <rects>
        <_>
          2 0 4 12 -1.</_>
        <_>
          2 0 2 6 2.</_>
        <_>
          4 6 2 6 2.</_></rects>
      <tilted>0</tilted></_>
    <_>
      <rects>
        <_>
          2 0 4 14 -1.</_>
        <_>
          2 0 2 7 2.</_>
        <_>
          4 7 2 7 2.</_></rects>
      <tilted>0</tilted></_>
    <_>
      <rects>
        <_>
          2 0 4 16 -1.</_>
        <_>
          2 0 2 8 2.</_>
        <_>
          4 8 2 8 2.</_></rects>
      <tilted>0</tilted></_>
    <_>
      <rects>
        <_>
          2 0 6 5 -1.</_>
        <_>
          5 0 3 5 2.</_></rects>
      <tilted>0</tilted></_>
    <_>
      <rects>
        <_>
          2 0 8 2 -1.</_>
        <_>
          2 1 8 1 2.</_></rects>
      <tilted>0</tilted></_>
    <_>
      <rects>
        <_>
          2 0 18 20 -1.</_>
        <_>
          2 0 9 10 2.</_>
        <_>
          11 10 9 10 2.</_></rects>
      <tilted>0</tilted></_>
    <_>
      <rects>
        <_>
          2 1 2 18 -1.</_>
        <_>
          2 1 1 9 2.</_>
        <_>
          3 10 1 9 2.</_></rects>
      <tilted>0</tilted></_>
    <_>
      <rects>
        <_>
          2 1 6 2 -1.</_>
        <_>
          4 1 2 2 3.</_></rects>
      <tilted>0</tilted></_>
    <_>
      <rects>
        <_>
          2 1 6 6 -1.</_>
        <_>
          2 1 3 3 2.</_>
        <_>
          5 4 3 3 2.</_></rects>
      <tilted>0</tilted></_>
    <_>
      <rects>
        <_>
          2 1 6 4 -1.</_>
        <_>
          5 1 3 4 2.</_></rects>
      <tilted>0</tilted></_>
    <_>
      <rects>
        <_>
          2 2 2 14 -1.</_>
        <_>
          2 2 1 7 2.</_>
        <_>
          3 9 1 7 2.</_></rects>
      <tilted>0</tilted></_>
    <_>
      <rects>
        <_>
          2 2 4 10 -1.</_>
        <_>
          2 2 2 5 2.</_>
        <_>
          4 7 2 5 2.</_></rects>
      <tilted>0</tilted></_>
    <_>
      <rects>
        <_>
          2 3 2 3 -1.</_>
        <_>
          3 3 1 3 2.</_></rects>
      <tilted>0</tilted></_>
    <_>
      <rects>
        <_>
          2 3 4 2 -1.</_>
        <_>
          4 3 2 2 2.</_></rects>
      <tilted>0</tilted></_>
    <_>
      <rects>
        <_>
          2 3 6 2 -1.</_>
        <_>
          4 3 2 2 3.</_></rects>
      <tilted>0</tilted></_>
    <_>
      <rects>
        <_>
          2 3 4 8 -1.</_>
        <_>
          2 3 2 4 2.</_>
        <_>
          4 7 2 4 2.</_></rects>
      <tilted>0</tilted></_>
    <_>
      <rects>
        <_>
          2 3 4 10 -1.</_>
        <_>
          2 3 2 5 2.</_>
        <_>
          4 8 2 5 2.</_></rects>
      <tilted>0</tilted></_>
    <_>
      <rects>
        <_>
          2 3 4 12 -1.</_>
        <_>
          2 3 2 6 2.</_>
        <_>
          4 9 2 6 2.</_></rects>
      <tilted>0</tilted></_>
    <_>
      <rects>
        <_>
          2 3 4 14 -1.</_>
        <_>
          2 3 2 7 2.</_>
        <_>
          4 10 2 7 2.</_></rects>
      <tilted>0</tilted></_>
    <_>
      <rects>
        <_>
          2 3 6 4 -1.</_>
        <_>
          5 3 3 4 2.</_></rects>
      <tilted>0</tilted></_>
    <_>
      <rects>
        <_>
          2 4 1 9 -1.</_>
        <_>
          2 7 1 3 3.</_></rects>
      <tilted>0</tilted></_>
    <_>
      <rects>
        <_>
          2 4 2 4 -1.</_>
        <_>
          3 4 1 4 2.</_></rects>
      <tilted>0</tilted></_>
    <_>
      <rects>
        <_>
          2 4 2 8 -1.</_>
        <_>
          2 4 1 4 2.</_>
        <_>
          3 8 1 4 2.</_></rects>
      <tilted>0</tilted></_>
    <_>
      <rects>
        <_>
          2 4 4 8 -1.</_>
        <_>
          2 4 2 4 2.</_>
        <_>
          4 8 2 4 2.</_></rects>
      <tilted>0</tilted></_>
    <_>
      <rects>
        <_>
          2 4 18 14 -1.</_>
        <_>
          2 4 9 7 2.</_>
        <_>
          11 11 9 7 2.</_></rects>
      <tilted>0</tilted></_>
    <_>
      <rects>
        <_>
          2 5 3 10 -1.</_>
        <_>
          3 5 1 10 3.</_></rects>
      <tilted>0</tilted></_>
    <_>
      <rects>
        <_>
          2 5 4 1 -1.</_>
        <_>
          4 5 2 1 2.</_></rects>
      <tilted>0</tilted></_>
    <_>
      <rects>
        <_>
          2 6 3 2 -1.</_>
        <_>
          3 6 1 2 3.</_></rects>
      <tilted>0</tilted></_>
    <_>
      <rects>
        <_>
          2 7 2 1 -1.</_>
        <_>
          3 7 1 1 2.</_></rects>
      <tilted>0</tilted></_>
    <_>
      <rects>
        <_>
          2 7 18 12 -1.</_>
        <_>
          2 7 9 6 2.</_>
        <_>
          11 13 9 6 2.</_></rects>
      <tilted>0</tilted></_>
    <_>
      <rects>
        <_>
          2 8 4 10 -1.</_>
        <_>
          2 8 2 5 2.</_>
        <_>
          4 13 2 5 2.</_></rects>
      <tilted>0</tilted></_>
    <_>
      <rects>
        <_>
          2 8 6 3 -1.</_>
        <_>
          5 8 3 3 2.</_></rects>
      <tilted>0</tilted></_>
    <_>
      <rects>
        <_>
          2 9 1 9 -1.</_>
        <_>
          2 12 1 3 3.</_></rects>
      <tilted>0</tilted></_>
    <_>
      <rects>
        <_>
          2 10 4 8 -1.</_>
        <_>
          2 10 2 4 2.</_>
        <_>
          4 14 2 4 2.</_></rects>
      <tilted>0</tilted></_>
    <_>
      <rects>
        <_>
          2 10 3 2 -1.</_>
        <_>
          2 11 3 1 2.</_></rects>
      <tilted>0</tilted></_>
    <_>
      <rects>
        <_>
          2 10 18 10 -1.</_>
        <_>
          8 10 6 10 3.</_></rects>
      <tilted>0</tilted></_>
    <_>
      <rects>
        <_>
          2 12 8 2 -1.</_>
        <_>
          6 12 4 2 2.</_></rects>
      <tilted>0</tilted></_>
    <_>
      <rects>
        <_>
          2 13 3 1 -1.</_>
        <_>
          3 13 1 1 3.</_></rects>
      <tilted>0</tilted></_>
    <_>
      <rects>
        <_>
          2 14 6 6 -1.</_>
        <_>
          2 14 3 3 2.</_>
        <_>
          5 17 3 3 2.</_></rects>
      <tilted>0</tilted></_>
    <_>
      <rects>
        <_>
          2 17 7 2 -1.</_>
        <_>
          2 18 7 1 2.</_></rects>
      <tilted>0</tilted></_>
    <_>
      <rects>
        <_>
          3 0 2 12 -1.</_>
        <_>
          3 0 1 6 2.</_>
        <_>
          4 6 1 6 2.</_></rects>
      <tilted>0</tilted></_>
    <_>
      <rects>
        <_>
          3 0 4 12 -1.</_>
        <_>
          3 0 2 6 2.</_>
        <_>
          5 6 2 6 2.</_></rects>
      <tilted>0</tilted></_>
    <_>
      <rects>
        <_>
          3 0 9 19 -1.</_>
        <_>
          6 0 3 19 3.</_></rects>
      <tilted>0</tilted></_>
    <_>
      <rects>
        <_>
          3 0 6 2 -1.</_>
        <_>
          3 1 6 1 2.</_></rects>
      <tilted>0</tilted></_>
    <_>
      <rects>
        <_>
          3 0 16 14 -1.</_>
        <_>
          3 0 8 7 2.</_>
        <_>
          11 7 8 7 2.</_></rects>
      <tilted>0</tilted></_>
    <_>
      <rects>
        <_>
          3 0 10 3 -1.</_>
        <_>
          3 1 10 1 3.</_></rects>
      <tilted>0</tilted></_>
    <_>
      <rects>
        <_>
          3 4 4 16 -1.</_>
        <_>
          3 12 4 8 2.</_></rects>
      <tilted>0</tilted></_>
    <_>
      <rects>
        <_>
          3 5 10 14 -1.</_>
        <_>
          8 5 5 14 2.</_></rects>
      <tilted>0</tilted></_>
    <_>
      <rects>
        <_>
          3 6 2 6 -1.</_>
        <_>
          4 6 1 6 2.</_></rects>
      <tilted>0</tilted></_>
    <_>
      <rects>
        <_>
          3 6 16 10 -1.</_>
        <_>
          3 6 8 5 2.</_>
        <_>
          11 11 8 5 2.</_></rects>
      <tilted>0</tilted></_>
    <_>
      <rects>
        <_>
          3 6 16 8 -1.</_>
        <_>
          11 6 8 8 2.</_></rects>
      <tilted>0</tilted></_>
    <_>
      <rects>
        <_>
          3 8 2 4 -1.</_>
        <_>
          4 8 1 4 2.</_></rects>
      <tilted>0</tilted></_>
    <_>
      <rects>
        <_>
          3 9 2 1 -1.</_>
        <_>
          4 9 1 1 2.</_></rects>
      <tilted>0</tilted></_>
    <_>
      <rects>
        <_>
          3 14 3 1 -1.</_>
        <_>
          4 14 1 1 3.</_></rects>
      <tilted>0</tilted></_>
    <_>
      <rects>
        <_>
          3 16 17 4 -1.</_>
        <_>
          3 18 17 2 2.</_></rects>
      <tilted>0</tilted></_>
    <_>
      <rects>
        <_>
          3 18 11 2 -1.</_>
        <_>
          3 19 11 1 2.</_></rects>
      <tilted>0</tilted></_>
    <_>
      <rects>
        <_>
          4 0 12 20 -1.</_>
        <_>
          8 0 4 20 3.</_></rects>
      <tilted>0</tilted></_>
    <_>
      <rects>
        <_>
          4 0 15 20 -1.</_>
        <_>
          9 0 5 20 3.</_></rects>
      <tilted>0</tilted></_>
    <_>
      <rects>
        <_>
          4 0 10 2 -1.</_>
        <_>
          4 1 10 1 2.</_></rects>
      <tilted>0</tilted></_>
    <_>
      <rects>
        <_>
          4 1 4 6 -1.</_>
        <_>
          4 1 2 3 2.</_>
        <_>
          6 4 2 3 2.</_></rects>
      <tilted>0</tilted></_>
    <_>
      <rects>
        <_>
          4 6 1 14 -1.</_>
        <_>
          4 13 1 7 2.</_></rects>
      <tilted>0</tilted></_>
    <_>
      <rects>
        <_>
          4 6 5 12 -1.</_>
        <_>
          4 10 5 4 3.</_></rects>
      <tilted>0</tilted></_>
    <_>
      <rects>
        <_>
          4 6 16 3 -1.</_>
        <_>
          12 6 8 3 2.</_></rects>
      <tilted>0</tilted></_>
    <_>
      <rects>
        <_>
          4 8 10 4 -1.</_>
        <_>
          4 8 5 2 2.</_>
        <_>
          9 10 5 2 2.</_></rects>
      <tilted>0</tilted></_>
    <_>
      <rects>
        <_>
          4 10 10 3 -1.</_>
        <_>
          4 11 10 1 3.</_></rects>
      <tilted>0</tilted></_>
    <_>
      <rects>
        <_>
          4 11 2 4 -1.</_>
        <_>
          4 11 1 2 2.</_>
        <_>
          5 13 1 2 2.</_></rects>
      <tilted>0</tilted></_>
    <_>
      <rects>
        <_>
          4 18 4 2 -1.</_>
        <_>
          4 19 4 1 2.</_></rects>
      <tilted>0</tilted></_>
    <_>
      <rects>
        <_>
          5 0 15 12 -1.</_>
        <_>
          10 0 5 12 3.</_></rects>
      <tilted>0</tilted></_>
    <_>
      <rects>
        <_>
          5 0 15 19 -1.</_>
        <_>
          10 0 5 19 3.</_></rects>
      <tilted>0</tilted></_>
    <_>
      <rects>
        <_>
          5 5 14 6 -1.</_>
        <_>
          12 5 7 6 2.</_></rects>
      <tilted>0</tilted></_>
    <_>
      <rects>
        <_>
          5 8 6 2 -1.</_>
        <_>
          7 8 2 2 3.</_></rects>
      <tilted>0</tilted></_>
    <_>
      <rects>
        <_>
          5 8 8 12 -1.</_>
        <_>
          5 12 8 4 3.</_></rects>
      <tilted>0</tilted></_>
    <_>
      <rects>
        <_>
          5 11 11 6 -1.</_>
        <_>
          5 14 11 3 2.</_></rects>
      <tilted>0</tilted></_>
    <_>
      <rects>
        <_>
          6 0 2 6 -1.</_>
        <_>
          6 3 2 3 2.</_></rects>
      <tilted>0</tilted></_>
    <_>
      <rects>
        <_>
          6 1 6 19 -1.</_>
        <_>
          9 1 3 19 2.</_></rects>
      <tilted>0</tilted></_>
    <_>
      <rects>
        <_>
          6 3 12 7 -1.</_>
        <_>
          10 3 4 7 3.</_></rects>
      <tilted>0</tilted></_>
    <_>
      <rects>
        <_>
          6 4 12 15 -1.</_>
        <_>
          10 4 4 15 3.</_></rects>
      <tilted>0</tilted></_>
    <_>
      <rects>
        <_>
          6 8 2 2 -1.</_>
        <_>
          6 8 1 1 2.</_>
        <_>
          7 9 1 1 2.</_></rects>
      <tilted>0</tilted></_>
    <_>
      <rects>
        <_>
          6 8 8 6 -1.</_>
        <_>
          6 8 4 3 2.</_>
        <_>
          10 11 4 3 2.</_></rects>
      <tilted>0</tilted></_>
    <_>
      <rects>
        <_>
          6 15 3 4 -1.</_>
        <_>
          7 15 1 4 3.</_></rects>
      <tilted>0</tilted></_>
    <_>
      <rects>
        <_>
          6 17 12 3 -1.</_>
        <_>
          6 18 12 1 3.</_></rects>
      <tilted>0</tilted></_>
    <_>
      <rects>
        <_>
          7 0 6 2 -1.</_>
        <_>
          9 0 2 2 3.</_></rects>
      <tilted>0</tilted></_>
    <_>
      <rects>
        <_>
          7 0 12 20 -1.</_>
        <_>
          11 0 4 20 3.</_></rects>
      <tilted>0</tilted></_>
    <_>
      <rects>
        <_>
          7 1 1 6 -1.</_>
        <_>
          7 4 1 3 2.</_></rects>
      <tilted>0</tilted></_>
    <_>
      <rects>
        <_>
          7 1 6 7 -1.</_>
        <_>
          9 1 2 7 3.</_></rects>
      <tilted>0</tilted></_>
    <_>
      <rects>
        <_>
          7 2 3 17 -1.</_>
        <_>
          8 2 1 17 3.</_></rects>
      <tilted>0</tilted></_>
    <_>
      <rects>
        <_>
          7 5 9 6 -1.</_>
        <_>
          7 7 9 2 3.</_></rects>
      <tilted>0</tilted></_>
    <_>
      <rects>
        <_>
          7 7 8 3 -1.</_>
        <_>
          7 8 8 1 3.</_></rects>
      <tilted>0</tilted></_>
    <_>
      <rects>
        <_>
          7 8 2 2 -1.</_>
        <_>
          7 8 1 1 2.</_>
        <_>
          8 9 1 1 2.</_></rects>
      <tilted>0</tilted></_>
    <_>
      <rects>
        <_>
          7 8 10 9 -1.</_>
        <_>
          7 11 10 3 3.</_></rects>
      <tilted>0</tilted></_>
    <_>
      <rects>
        <_>
          7 11 3 6 -1.</_>
        <_>
          8 11 1 6 3.</_></rects>
      <tilted>0</tilted></_>
    <_>
      <rects>
        <_>
          7 12 3 1 -1.</_>
        <_>
          8 12 1 1 3.</_></rects>
      <tilted>0</tilted></_>
    <_>
      <rects>
        <_>
          7 18 13 2 -1.</_>
        <_>
          7 19 13 1 2.</_></rects>
      <tilted>0</tilted></_>
    <_>
      <rects>
        <_>
          8 5 5 6 -1.</_>
        <_>
          8 7 5 2 3.</_></rects>
      <tilted>0</tilted></_>
    <_>
      <rects>
        <_>
          8 6 12 12 -1.</_>
        <_>
          8 6 6 6 2.</_>
        <_>
          14 12 6 6 2.</_></rects>
      <tilted>0</tilted></_>
    <_>
      <rects>
        <_>
          8 9 1 9 -1.</_>
        <_>
          8 12 1 3 3.</_></rects>
      <tilted>0</tilted></_>
    <_>
      <rects>
        <_>
          8 11 6 2 -1.</_>
        <_>
          8 11 3 1 2.</_>
        <_>
          11 12 3 1 2.</_></rects>
      <tilted>0</tilted></_>
    <_>
      <rects>
        <_>
          8 13 5 4 -1.</_>
        <_>
          8 15 5 2 2.</_></rects>
      <tilted>0</tilted></_>
    <_>
      <rects>
        <_>
          8 16 4 1 -1.</_>
        <_>
          10 16 2 1 2.</_></rects>
      <tilted>0</tilted></_>
    <_>
      <rects>
        <_>
          9 1 8 14 -1.</_>
        <_>
          13 1 4 14 2.</_></rects>
      <tilted>0</tilted></_>
    <_>
      <rects>
        <_>
          9 3 10 6 -1.</_>
        <_>
          9 3 5 3 2.</_>
        <_>
          14 6 5 3 2.</_></rects>
      <tilted>0</tilted></_>
    <_>
      <rects>
        <_>
          9 7 2 1 -1.</_>
        <_>
          10 7 1 1 2.</_></rects>
      <tilted>0</tilted></_>
    <_>
      <rects>
        <_>
          9 10 3 3 -1.</_>
        <_>
          10 10 1 3 3.</_></rects>
      <tilted>0</tilted></_>
    <_>
      <rects>
        <_>
          9 14 9 4 -1.</_>
        <_>
          9 16 9 2 2.</_></rects>
      <tilted>0</tilted></_>
    <_>
      <rects>
        <_>
          9 17 10 2 -1.</_>
        <_>
          14 17 5 2 2.</_></rects>
      <tilted>0</tilted></_>
    <_>
      <rects>
        <_>
          10 0 9 12 -1.</_>
        <_>
          13 0 3 12 3.</_></rects>
      <tilted>0</tilted></_>
    <_>
      <rects>
        <_>
          10 0 6 19 -1.</_>
        <_>
          13 0 3 19 2.</_></rects>
      <tilted>0</tilted></_>
    <_>
      <rects>
        <_>
          10 1 9 6 -1.</_>
        <_>
          13 1 3 6 3.</_></rects>
      <tilted>0</tilted></_>
    <_>
      <rects>
        <_>
          10 2 8 16 -1.</_>
        <_>
          10 10 8 8 2.</_></rects>
      <tilted>0</tilted></_>
    <_>
      <rects>
        <_>
          10 3 6 8 -1.</_>
        <_>
          12 3 2 8 3.</_></rects>
      <tilted>0</tilted></_>
    <_>
      <rects>
        <_>
          10 4 6 11 -1.</_>
        <_>
          13 4 3 11 2.</_></rects>
      <tilted>0</tilted></_>
    <_>
      <rects>
        <_>
          10 6 10 9 -1.</_>
        <_>
          10 9 10 3 3.</_></rects>
      <tilted>0</tilted></_>
    <_>
      <rects>
        <_>
          10 7 9 13 -1.</_>
        <_>
          13 7 3 13 3.</_></rects>
      <tilted>0</tilted></_>
    <_>
      <rects>
        <_>
          10 13 10 6 -1.</_>
        <_>
          15 13 5 6 2.</_></rects>
      <tilted>0</tilted></_>
    <_>
      <rects>
        <_>
          10 14 7 2 -1.</_>
        <_>
          10 15 7 1 2.</_></rects>
      <tilted>0</tilted></_>
    <_>
      <rects>
        <_>
          11 1 4 14 -1.</_>
        <_>
          13 1 2 14 2.</_></rects>
      <tilted>0</tilted></_>
    <_>
      <rects>
        <_>
          11 1 9 2 -1.</_>
        <_>
          14 1 3 2 3.</_></rects>
      <tilted>0</tilted></_>
    <_>
      <rects>
        <_>
          11 1 8 18 -1.</_>
        <_>
          15 1 4 18 2.</_></rects>
      <tilted>0</tilted></_>
    <_>
      <rects>
        <_>
          11 6 6 7 -1.</_>
        <_>
          13 6 2 7 3.</_></rects>
      <tilted>0</tilted></_>
    <_>
      <rects>
        <_>
          11 7 6 8 -1.</_>
        <_>
          11 7 3 4 2.</_>
        <_>
          14 11 3 4 2.</_></rects>
      <tilted>0</tilted></_>
    <_>
      <rects>
        <_>
          11 8 6 1 -1.</_>
        <_>
          13 8 2 1 3.</_></rects>
      <tilted>0</tilted></_>
    <_>
      <rects>
        <_>
          12 1 6 2 -1.</_>
        <_>
          14 1 2 2 3.</_></rects>
      <tilted>0</tilted></_>
    <_>
      <rects>
        <_>
          12 1 6 4 -1.</_>
        <_>
          14 1 2 4 3.</_></rects>
      <tilted>0</tilted></_>
    <_>
      <rects>
        <_>
          12 1 6 7 -1.</_>
        <_>
          14 1 2 7 3.</_></rects>
      <tilted>0</tilted></_>
    <_>
      <rects>
        <_>
          12 1 8 14 -1.</_>
        <_>
          16 1 4 14 2.</_></rects>
      <tilted>0</tilted></_>
    <_>
      <rects>
        <_>
          12 2 8 16 -1.</_>
        <_>
          16 2 4 16 2.</_></rects>
      <tilted>0</tilted></_>
    <_>
      <rects>
        <_>
          12 5 4 10 -1.</_>
        <_>
          12 5 2 5 2.</_>
        <_>
          14 10 2 5 2.</_></rects>
      <tilted>0</tilted></_>
    <_>
      <rects>
        <_>
          12 7 8 9 -1.</_>
        <_>
          16 7 4 9 2.</_></rects>
      <tilted>0</tilted></_>
    <_>
      <rects>
        <_>
          12 9 7 9 -1.</_>
        <_>
          12 12 7 3 3.</_></rects>
      <tilted>0</tilted></_>
    <_>
      <rects>
        <_>
          12 13 8 7 -1.</_>
        <_>
          16 13 4 7 2.</_></rects>
      <tilted>0</tilted></_>
    <_>
      <rects>
        <_>
          13 3 6 7 -1.</_>
        <_>
          15 3 2 7 3.</_></rects>
      <tilted>0</tilted></_>
    <_>
      <rects>
        <_>
          13 4 5 15 -1.</_>
        <_>
          13 9 5 5 3.</_></rects>
      <tilted>0</tilted></_>
    <_>
      <rects>
        <_>
          13 6 3 12 -1.</_>
        <_>
          13 10 3 4 3.</_></rects>
      <tilted>0</tilted></_>
    <_>
      <rects>
        <_>
          13 6 6 12 -1.</_>
        <_>
          13 10 6 4 3.</_></rects>
      <tilted>0</tilted></_>
    <_>
      <rects>
        <_>
          13 7 6 6 -1.</_>
        <_>
          15 7 2 6 3.</_></rects>
      <tilted>0</tilted></_>
    <_>
      <rects>
        <_>
          13 7 4 2 -1.</_>
        <_>
          13 8 4 1 2.</_></rects>
      <tilted>0</tilted></_>
    <_>
      <rects>
        <_>
          13 11 3 6 -1.</_>
        <_>
          14 11 1 6 3.</_></rects>
      <tilted>0</tilted></_>
    <_>
      <rects>
        <_>
          14 0 4 6 -1.</_>
        <_>
          14 0 2 3 2.</_>
        <_>
          16 3 2 3 2.</_></rects>
      <tilted>0</tilted></_>
    <_>
      <rects>
        <_>
          14 0 4 12 -1.</_>
        <_>
          14 0 2 6 2.</_>
        <_>
          16 6 2 6 2.</_></rects>
      <tilted>0</tilted></_>
    <_>
      <rects>
        <_>
          14 1 4 6 -1.</_>
        <_>
          14 1 2 3 2.</_>
        <_>
          16 4 2 3 2.</_></rects>
      <tilted>0</tilted></_>
    <_>
      <rects>
        <_>
          14 2 4 10 -1.</_>
        <_>
          16 2 2 10 2.</_></rects>
      <tilted>0</tilted></_>
    <_>
      <rects>
        <_>
          14 3 4 9 -1.</_>
        <_>
          14 6 4 3 3.</_></rects>
      <tilted>0</tilted></_>
    <_>
      <rects>
        <_>
          14 9 6 4 -1.</_>
        <_>
          17 9 3 4 2.</_></rects>
      <tilted>0</tilted></_>
    <_>
      <rects>
        <_>
          14 13 4 6 -1.</_>
        <_>
          16 13 2 6 2.</_></rects>
      <tilted>0</tilted></_>
    <_>
      <rects>
        <_>
          14 13 6 7 -1.</_>
        <_>
          17 13 3 7 2.</_></rects>
      <tilted>0</tilted></_>
    <_>
      <rects>
        <_>
          15 0 4 6 -1.</_>
        <_>
          15 0 2 3 2.</_>
        <_>
          17 3 2 3 2.</_></rects>
      <tilted>0</tilted></_>
    <_>
      <rects>
        <_>
          15 1 4 7 -1.</_>
        <_>
          17 1 2 7 2.</_></rects>
      <tilted>0</tilted></_>
    <_>
      <rects>
        <_>
          15 3 2 9 -1.</_>
        <_>
          16 3 1 9 2.</_></rects>
      <tilted>0</tilted></_>
    <_>
      <rects>
        <_>
          15 5 4 10 -1.</_>
        <_>
          17 5 2 10 2.</_></rects>
      <tilted>0</tilted></_>
    <_>
      <rects>
        <_>
          15 8 3 3 -1.</_>
        <_>
          16 8 1 3 3.</_></rects>
      <tilted>0</tilted></_>
    <_>
      <rects>
        <_>
          15 12 4 8 -1.</_>
        <_>
          17 12 2 8 2.</_></rects>
      <tilted>0</tilted></_>
    <_>
      <rects>
        <_>
          15 16 3 3 -1.</_>
        <_>
          15 17 3 1 3.</_></rects>
      <tilted>0</tilted></_>
    <_>
      <rects>
        <_>
          16 0 4 7 -1.</_>
        <_>
          18 0 2 7 2.</_></rects>
      <tilted>0</tilted></_>
    <_>
      <rects>
        <_>
          16 4 4 5 -1.</_>
        <_>
          18 4 2 5 2.</_></rects>
      <tilted>0</tilted></_>
    <_>
      <rects>
        <_>
          16 4 4 10 -1.</_>
        <_>
          18 4 2 10 2.</_></rects>
      <tilted>0</tilted></_>
    <_>
      <rects>
        <_>
          16 5 2 3 -1.</_>
        <_>
          17 5 1 3 2.</_></rects>
      <tilted>0</tilted></_>
    <_>
      <rects>
        <_>
          16 5 4 6 -1.</_>
        <_>
          16 5 2 3 2.</_>
        <_>
          18 8 2 3 2.</_></rects>
      <tilted>0</tilted></_>
    <_>
      <rects>
        <_>
          16 5 4 8 -1.</_>
        <_>
          18 5 2 8 2.</_></rects>
      <tilted>0</tilted></_>
    <_>
      <rects>
        <_>
          16 5 4 10 -1.</_>
        <_>
          18 5 2 10 2.</_></rects>
      <tilted>0</tilted></_>
    <_>
      <rects>
        <_>
          16 6 4 4 -1.</_>
        <_>
          16 6 2 2 2.</_>
        <_>
          18 8 2 2 2.</_></rects>
      <tilted>0</tilted></_>
    <_>
      <rects>
        <_>
          16 7 4 6 -1.</_>
        <_>
          18 7 2 6 2.</_></rects>
      <tilted>0</tilted></_>
    <_>
      <rects>
        <_>
          16 11 4 8 -1.</_>
        <_>
          16 11 2 4 2.</_>
        <_>
          18 15 2 4 2.</_></rects>
      <tilted>0</tilted></_>
    <_>
      <rects>
        <_>
          16 11 4 8 -1.</_>
        <_>
          18 11 2 8 2.</_></rects>
      <tilted>0</tilted></_>
    <_>
      <rects>
        <_>
          16 15 2 3 -1.</_>
        <_>
          16 16 2 1 3.</_></rects>
      <tilted>0</tilted></_>
    <_>
      <rects>
        <_>
          17 6 2 8 -1.</_>
        <_>
          18 6 1 8 2.</_></rects>
      <tilted>0</tilted></_>
    <_>
      <rects>
        <_>
          17 9 2 10 -1.</_>
        <_>
          18 9 1 10 2.</_></rects>
      <tilted>0</tilted></_>
    <_>
      <rects>
        <_>
          17 16 3 3 -1.</_>
        <_>
          17 17 3 1 3.</_></rects>
      <tilted>0</tilted></_>
    <_>
      <rects>
        <_>
          18 13 2 4 -1.</_>
        <_>
          19 13 1 4 2.</_></rects>
      <tilted>0</tilted></_>
    <_>
      <rects>
        <_>
          18 18 2 1 -1.</_>
        <_>
          19 18 1 1 2.</_></rects>
      <tilted>0</tilted></_>
    <_>
      <rects>
        <_>
          18 19 2 1 -1.</_>
        <_>
          19 19 1 1 2.</_></rects>
      <tilted>0</tilted></_></features></cascade>
</opencv_storage>
